{"learner":{"attributes":{"best_iteration":"75","best_score":"0.6316261776594942","scikit_learn":"{\"_estimator_type\": \"classifier\"}"},"feature_names":["surface_enc","tourney_level_enc","round_ord","best_of","A_rank","A_rank_pts","A_seed","A_age","A_ht","A_h2h","hand_A_L","B_rank","B_rank_pts","B_seed","B_age","B_ht","B_h2h","hand_B_L","days_since_h2h","rank_diff","rank_pts_diff","A_tourney_titles","A_tourney_win_rate","A_tourney_matches","B_tourney_titles","B_tourney_win_rate","B_tourney_matches","A_is_home","B_is_home","win_rate_A","completed_winrate_A","strsets_rate_A","tiebreaks_winrate_A","rank_improvement_A","injured_during_swing_A","matches_played_A","ace_rate_A","df_rate_A","first_serve_pct_A","first_serve_win_pct_A","second_serve_win_pct_A","bp_save_pct_A","sv_gms_won_pct_A","rtn_win_pct_A","win_rate_B","completed_winrate_B","strsets_rate_B","tiebreaks_winrate_B","rank_improvement_B","injured_during_swing_B","matches_played_B","ace_rate_B","df_rate_B","first_serve_pct_B","first_serve_win_pct_B","second_serve_win_pct_B","bp_save_pct_B","sv_gms_won_pct_B","rtn_win_pct_B"],"feature_types":["int","int","int","int","float","float","float","float","float","int","int","float","float","float","float","float","int","int","int","float","float","int","float","int","int","float","int","int","int","float","float","float","float","float","float","float","float","float","float","float","float","float","float","float","float","float","float","float","float","float","float","float","float","float","float","float","float","float","float"],"gradient_booster":{"model":{"cats":{"enc":[],"feature_segments":[],"sorted_idx":[]},"gbtree_model_param":{"num_parallel_tree":"1","num_trees":"106"},"iteration_indptr":[0,1,2,3,4,5,6,7,8,9,10,11,12,13,14,15,16,17,18,19,20,21,22,23,24,25,26,27,28,29,30,31,32,33,34,35,36,37,38,39,40,41,42,43,44,45,46,47,48,49,50,51,52,53,54,55,56,57,58,59,60,61,62,63,64,65,66,67,68,69,70,71,72,73,74,75,76,77,78,79,80,81,82,83,84,85,86,87,88,89,90,91,92,93,94,95,96,97,98,99,100,101,102,103,104,105,106],"tree_info":[0,0,0,0,0,0,0,0,0,0,0,0,0,0,0,0,0,0,0,0,0,0,0,0,0,0,0,0,0,0,0,0,0,0,0,0,0,0,0,0,0,0,0,0,0,0,0,0,0,0,0,0,0,0,0,0,0,0,0,0,0,0,0,0,0,0,0,0,0,0,0,0,0,0,0,0,0,0,0,0,0,0,0,0,0,0,0,0,0,0,0,0,0,0,0,0,0,0,0,0,0,0,0,0,0,0],"trees":[{"base_weights":[9.766827E-3,-5.849372E-1,4.6639284E-1,-7.757745E-1,-3.1307414E-1,2.0062661E-1,1.0718235E0,-1.0269446E0,-5.9052217E-1,1.3532066E-3,-4.8099604E-1,8.398885E-2,5.0552696E-1,8.267387E-1,1.6120013E0,2.1084367E-4,-1.0810255E0,-3.3337775E-1,-8.7959623E-1,-6.671962E-1,1.4027347E-1,8.067661E-2,-5.763627E-1,7.2323465E-1,2.2868004E-2,6.7842567E-1,6.612919E-2,8.9829147E-1,1.1567158E-3,8.418124E-2,2.874719E-2,-6.90133E-2,-4.4490363E-2,-2.6675442E-2,2.1896798E-3,-2.5849557E-2,-6.1293345E-2,-4.901531E-2,-1.1087794E-2,1.5434207E-2,-1.8826403E-2,-1.4242544E-2,2.6412362E-2,-3.2628503E-2,4.314028E-3,4.5087606E-2,2.560855E-3,2.7126025E-3,-4.637326E-2,4.317767E-2,1.3704172E-2,3.547434E-2,-1.5906107E-2,4.7473166E-2,-1.7702565E-2,-2.1270089E-2,1.5152569E-2],"categories":[],"categories_nodes":[],"categories_segments":[],"categories_sizes":[],"default_left":[0,0,1,0,1,0,0,0,0,0,0,0,0,1,0,0,0,1,0,0,0,0,0,0,0,0,0,1,0,0,0,0,0,0,0,0,0,0,0,0,0,0,0,0,0,0,0,0,0,0,0,0,0,0,0,0,0],"id":0,"left_children":[1,3,5,7,9,11,13,15,17,19,21,23,25,27,29,-1,31,33,35,37,39,41,43,45,47,49,51,53,55,-1,-1,-1,-1,-1,-1,-1,-1,-1,-1,-1,-1,-1,-1,-1,-1,-1,-1,-1,-1,-1,-1,-1,-1,-1,-1,-1,-1],"loss_changes":[4.022947E2,3.2654922E1,1.341861E2,1.5677689E1,1.4279852E1,2.071346E1,2.975293E1,8.68869E0,1.573217E1,9.302036E0,9.582191E0,1.6652325E1,1.213884E1,1.0720276E1,2.7714996E0,0E0,4.773834E0,9.362224E0,1.1078506E1,1.7512631E0,7.563964E0,5.0679846E0,7.7975044E0,4.3251266E0,1.18802395E1,7.943966E0,1.2776377E1,1.1713608E1,2.63802E0,0E0,0E0,0E0,0E0,0E0,0E0,0E0,0E0,0E0,0E0,0E0,0E0,0E0,0E0,0E0,0E0,0E0,0E0,0E0,0E0,0E0,0E0,0E0,0E0,0E0,0E0,0E0,0E0],"parents":[2147483647,0,0,1,1,2,2,3,3,4,4,5,5,6,6,7,7,8,8,9,9,10,10,11,11,12,12,13,13,14,14,16,16,17,17,18,18,19,19,20,20,21,21,22,22,23,23,24,24,25,25,26,26,27,27,28,28],"right_children":[2,4,6,8,10,12,14,16,18,20,22,24,26,28,30,-1,32,34,36,38,40,42,44,46,48,50,52,54,56,-1,-1,-1,-1,-1,-1,-1,-1,-1,-1,-1,-1,-1,-1,-1,-1,-1,-1,-1,-1,-1,-1,-1,-1,-1,-1,-1,-1],"split_conditions":[-9.3E1,-5.85E2,1.341E3,7.000668E-1,1.8781726E-1,8.2229966E-1,5.245E3,6.5527064E-1,4.7E1,6.9456065E-1,-3.3E1,-1.01E2,2.2454308E-1,7.7686405E-1,1E0,2.1084367E-4,-2.11E3,6.2541646E-1,0E0,7E0,9.57E2,2.0634921E-1,1.36E3,3.32E1,3.62E1,6.25E-1,9E0,3.253012E-1,5.625E-1,8.418124E-2,2.874719E-2,-6.90133E-2,-4.4490363E-2,-2.6675442E-2,2.1896798E-3,-2.5849557E-2,-6.1293345E-2,-4.901531E-2,-1.1087794E-2,1.5434207E-2,-1.8826403E-2,-1.4242544E-2,2.6412362E-2,-3.2628503E-2,4.314028E-3,4.5087606E-2,2.560855E-3,2.7126025E-3,-4.637326E-2,4.317767E-2,1.3704172E-2,3.547434E-2,-1.5906107E-2,4.7473166E-2,-1.7702565E-2,-2.1270089E-2,1.5152569E-2],"split_indices":[20,20,20,39,58,42,20,54,19,42,33,19,58,54,16,0,20,38,33,48,5,43,5,7,7,46,50,58,25,0,0,0,0,0,0,0,0,0,0,0,0,0,0,0,0,0,0,0,0,0,0,0,0,0,0,0,0],"split_type":[0,0,0,0,0,0,0,0,0,0,0,0,0,0,0,0,0,0,0,0,0,0,0,0,0,0,0,0,0,0,0,0,0,0,0,0,0,0,0,0,0,0,0,0,0,0,0,0,0,0,0,0,0,0,0,0,0],"sum_hessian":[1.4754218E3,6.404564E2,8.349654E2,3.7303778E2,2.6741864E2,5.830276E2,2.5193782E2,1.5256096E2,2.204768E2,9.413336E1,1.7328528E2,4.2447403E2,1.5855354E2,1.7852878E2,7.3409035E1,7.740409E0,1.4482056E2,1.2010118E2,1.00375626E2,1.4232365E1,7.990099E1,2.5218752E1,1.4806653E2,3.4207615E1,3.9026642E2,1.12610466E2,4.5943073E1,1.6404672E2,1.4482056E1,6.691708E1,6.4919558E0,4.918905E1,9.56315E1,7.765378E1,4.2447403E1,5.268472E1,4.7690907E1,6.242265E0,7.9900994E0,6.11742E1,1.8726795E1,1.4482056E1,1.0736696E1,1.328354E2,1.5231127E1,2.6217514E1,7.9900994E0,3.8052847E2,9.737934E0,7.490718E1,3.770328E1,1.6229889E1,2.9713182E1,1.5830385E2,5.742884E0,5.493193E0,8.988862E0],"tree_param":{"num_deleted":"0","num_feature":"59","num_nodes":"57","size_leaf_vector":"1"}},{"base_weights":[-1.2070651E-2,-3.3790278E-1,7.7436864E-1,-6.818854E-1,-5.9789784E-2,6.091116E-1,1.490319E0,-9.859427E-1,-5.413786E-1,1.9649142E-1,-2.275451E-1,6.76768E-1,-4.1024595E-2,7.934257E-2,1.855134E-2,-1.1206405E0,-3.294254E-1,-5.747407E-1,2.106749E-2,5.2873883E-2,5.954918E-1,1.7719017E-1,-3.202926E-1,4.4528946E-1,9.210453E-1,1.6616964E-1,-3.9400715E-2,-6.587692E-2,-3.6494356E-2,3.132638E-2,-3.5205375E-2,-3.5126235E-2,-1.613084E-2,1.3558695E-2,-1.5244971E-2,8.116781E-3,4.9954604E-2,-7.5269016E-3,3.6771428E-2,-3.406316E-2,-1.0437101E-2,4.5930486E-2,9.392516E-3,1.0852674E-2,5.1072158E-2,-1.3018483E-2,2.0182205E-2],"categories":[],"categories_nodes":[],"categories_segments":[],"categories_sizes":[],"default_left":[1,0,0,0,0,1,0,0,0,1,0,0,0,0,0,0,0,0,0,1,0,0,0,0,0,0,0,0,0,0,0,0,0,0,0,0,0,0,0,0,0,0,0,0,0,0,0],"id":1,"left_children":[1,3,5,7,9,11,13,15,17,19,21,23,25,-1,-1,27,29,31,-1,33,35,37,39,41,43,45,-1,-1,-1,-1,-1,-1,-1,-1,-1,-1,-1,-1,-1,-1,-1,-1,-1,-1,-1,-1,-1],"loss_changes":[3.8161462E2,1.00604774E2,4.8895264E1,1.8496078E1,2.5305508E1,1.589772E1,6.849823E0,1.1717316E1,1.1274094E1,1.327075E1,1.3505579E1,1.7192917E1,6.07557E0,0E0,0E0,6.2774353E0,1.1688564E1,9.586639E0,0E0,1.3899968E1,1.0254387E1,1.280229E1,1.1254091E1,2.0574642E1,1.0340912E1,3.4777944E0,0E0,0E0,0E0,0E0,0E0,0E0,0E0,0E0,0E0,0E0,0E0,0E0,0E0,0E0,0E0,0E0,0E0,0E0,0E0,0E0,0E0],"parents":[2147483647,0,0,1,1,2,2,3,3,4,4,5,5,6,6,7,7,8,8,9,9,10,10,11,11,12,12,15,15,16,16,17,17,19,19,20,20,21,21,22,22,23,23,24,24,25,25],"right_children":[2,4,6,8,10,12,14,16,18,20,22,24,26,-1,-1,28,30,32,-1,34,36,38,40,42,44,46,-1,-1,-1,-1,-1,-1,-1,-1,-1,-1,-1,-1,-1,-1,-1,-1,-1,-1,-1,-1,-1],"split_conditions":[5.71E2,-4.05E2,5.245E3,-1.952E3,4.1666666E-1,7.727825E-1,1E0,8.4165233E-1,1E1,7.830189E-1,3.846154E-1,1.341E3,1.4250973E-1,7.934257E-2,1.855134E-2,1.134E3,2.73E1,1.8E1,2.106749E-2,-1E0,1.5E1,7.9856116E-1,5.681818E-1,1.7663817E-1,7.653061E-1,6.069869E-1,-3.9400715E-2,-6.587692E-2,-3.6494356E-2,3.132638E-2,-3.5205375E-2,-3.5126235E-2,-1.613084E-2,1.3558695E-2,-1.5244971E-2,8.116781E-3,4.9954604E-2,-7.5269016E-3,3.6771428E-2,-3.406316E-2,-1.0437101E-2,4.5930486E-2,9.392516E-3,1.0852674E-2,5.1072158E-2,-1.3018483E-2,2.0182205E-2],"split_indices":[20,20,20,20,45,54,16,42,23,57,46,20,36,0,0,5,7,35,0,19,35,42,41,58,42,41,0,0,0,0,0,0,0,0,0,0,0,0,0,0,0,0,0,0,0,0,0],"split_type":[0,0,0,0,0,0,0,0,0,0,0,0,0,0,0,0,0,0,0,0,0,0,0,0,0,0,0,0,0,0,0,0,0,0,0,0,0,0,0,0,0,0,0,0,0,0,0],"sum_hessian":[1.483181E3,1.0499033E3,4.332777E2,4.6742078E2,5.824825E2,3.5653415E2,7.674355E1,1.4202562E2,3.2539514E2,2.3023567E2,3.5224686E2,3.228173E2,3.371685E1,6.94967E1,7.246858E0,1.1608715E2,2.5938465E1,3.1566522E2,9.729929E0,1.7179628E2,5.843938E1,6.5161415E1,2.8708542E2,1.7009909E2,1.5271822E2,2.8221603E1,5.495248E0,7.2459785E1,4.3627365E1,6.7359896E0,1.9202477E1,2.059329E2,1.0973231E2,1.0714595E2,6.465034E1,3.0216625E1,2.8222755E1,4.243806E1,2.2723354E1,6.41567E1,2.2292873E2,5.7209877E1,1.1288921E2,2.0245085E1,1.3247313E2,9.989589E0,1.8232014E1],"tree_param":{"num_deleted":"0","num_feature":"59","num_nodes":"47","size_leaf_vector":"1"}},{"base_weights":[-1.4671738E-2,-4.5894906E-1,5.0929E-1,-7.386517E-1,-2.0275733E-1,2.8566536E-1,1.074019E0,-1.0044324E0,-5.8549356E-1,1.1625505E-1,-3.135892E-1,4.169436E-1,5.5063218E-2,7.752461E-1,7.354999E-2,-1.2842147E-2,-1.0931077E0,1.0440486E-1,-6.415979E-1,-2.2557202E-1,3.679054E-1,-4.2778826E-1,1.0483166E-1,-2.6051602E-1,5.1024336E-1,4.221089E-1,-1.11122906E-1,6.5229297E-1,7.1162164E-2,-2.360969E-2,2.4622332E-2,-5.8266398E-2,-1.2859028E-3,1.8848186E-2,-2.3505442E-2,1.2007901E-2,-3.401411E-2,-2.1585492E-2,1.3633904E-2,-1.1106729E-2,2.9836634E-2,-2.4617616E-2,1.8203443E-2,-1.3318965E-3,4.640625E-2,-2.2456847E-2,1.706212E-2,-1.0636527E-2,2.9785652E-2,-8.449423E-3,3.60578E-2,-3.754474E-2,9.6328295E-4,5.6921644E-3,3.8003966E-2],"categories":[],"categories_nodes":[],"categories_segments":[],"categories_sizes":[],"default_left":[0,0,0,0,0,0,1,0,1,0,0,0,0,0,0,0,1,1,0,0,0,0,0,0,0,0,0,0,0,0,0,0,0,0,0,0,0,0,0,0,0,0,0,0,0,0,0,0,0,0,0,0,0,0,0],"id":2,"left_children":[1,3,5,7,9,11,13,15,17,19,21,23,25,27,-1,29,31,33,35,37,39,41,43,45,47,49,51,53,-1,-1,-1,-1,-1,-1,-1,-1,-1,-1,-1,-1,-1,-1,-1,-1,-1,-1,-1,-1,-1,-1,-1,-1,-1,-1,-1],"loss_changes":[3.4632205E2,5.723758E1,8.52946E1,1.3855774E1,1.5111671E1,1.4859512E1,1.9418396E1,1.1924332E1,9.902008E0,9.848397E0,1.5220591E1,2.0231735E1,1.1263432E1,6.4741898E0,0E0,3.995093E0,9.537064E0,3.8872402E0,8.410599E0,5.4042034E0,9.229886E0,1.3248348E1,7.6619496E0,4.9964066E0,1.7484947E1,1.0521653E1,1.0711938E1,5.731018E0,0E0,0E0,0E0,0E0,0E0,0E0,0E0,0E0,0E0,0E0,0E0,0E0,0E0,0E0,0E0,0E0,0E0,0E0,0E0,0E0,0E0,0E0,0E0,0E0,0E0,0E0,0E0],"parents":[2147483647,0,0,1,1,2,2,3,3,4,4,5,5,6,6,7,7,8,8,9,9,10,10,11,11,12,12,13,13,15,15,16,16,17,17,18,18,19,19,20,20,21,21,22,22,23,23,24,24,25,25,26,26,27,27],"right_children":[2,4,6,8,10,12,14,16,18,20,22,24,26,28,-1,30,32,34,36,38,40,42,44,46,48,50,52,54,-1,-1,-1,-1,-1,-1,-1,-1,-1,-1,-1,-1,-1,-1,-1,-1,-1,-1,-1,-1,-1,-1,-1,-1,-1,-1,-1],"split_conditions":[1.38E2,-5.85E2,1.899E3,-2.044E3,1.6949153E-1,6.3704634E-1,5.245E3,9E0,7.1666664E-1,7.866667E-1,8.2E-1,3.2E1,2.77E1,2.92E1,7.354999E-2,6.3E1,1.8029436E-1,6.4880204E-1,1.6E1,3.28E1,3.3333334E-1,1.02E2,2.7715355E-1,7E0,-2.6E1,2.43E1,3.6842105E-1,4.5E-1,7.1162164E-2,-2.360969E-2,2.4622332E-2,-5.8266398E-2,-1.2859028E-3,1.8848186E-2,-2.3505442E-2,1.2007901E-2,-3.401411E-2,-2.1585492E-2,1.3633904E-2,-1.1106729E-2,2.9836634E-2,-2.4617616E-2,1.8203443E-2,-1.3318965E-3,4.640625E-2,-2.2456847E-2,1.706212E-2,-1.0636527E-2,2.9785652E-2,-8.449423E-3,3.60578E-2,-3.754474E-2,9.6328295E-4,5.6921644E-3,3.8003966E-2],"split_indices":[20,20,20,20,58,53,20,6,57,57,42,11,7,14,0,18,36,53,4,7,32,11,58,26,48,7,30,32,0,0,0,0,0,0,0,0,0,0,0,0,0,0,0,0,0,0,0,0,0,0,0,0,0,0,0],"split_type":[0,0,0,0,0,0,0,0,0,0,0,0,0,0,0,0,0,0,0,0,0,0,0,0,0,0,0,0,0,0,0,0,0,0,0,0,0,0,0,0,0,0,0,0,0,0,0,0,0,0,0,0,0,0,0],"sum_hessian":[1.4817258E3,8.020361E2,6.7968976E2,3.807236E2,4.2131244E2,4.9012485E2,1.8956488E2,1.3309123E2,2.4763237E2,1.0859415E2,3.127183E2,3.10779E2,1.7934587E2,1.13215805E2,7.634908E1,1.1206929E1,1.218843E2,1.8429361E1,2.29203E2,4.6178658E1,6.2415493E1,2.4561559E2,6.7102715E1,3.6968662E1,2.7381033E2,5.4454792E1,1.24891075E2,1.0021967E2,1.2996128E1,5.9732313E0,5.233698E0,1.1390234E2,7.9819584E0,1.319907E1,5.2302914E0,8.976283E0,2.2022672E2,3.2947956E1,1.3230701E1,1.7466135E1,4.4949356E1,2.2814821E2,1.7467371E1,6.0365967E1,6.7367516E0,2.872553E1,8.24313E0,2.8475336E1,2.4533499E2,1.8732603E1,3.5722187E1,1.8727072E1,1.0616401E2,1.7744604E1,8.2475075E1],"tree_param":{"num_deleted":"0","num_feature":"59","num_nodes":"55","size_leaf_vector":"1"}},{"base_weights":[3.0038197E-2,-2.544915E-1,6.7472327E-1,-5.6006753E-1,-1.0297041E-2,5.148002E-1,1.3930256E0,-8.581431E-1,-4.0722942E-1,7.284203E-2,-3.347876E-1,1.5407349E-1,6.3867533E-1,1.4774603E0,7.909424E-1,-9.283052E-1,1.6520565E-2,3.2365116E-1,-4.483472E-1,-2.687884E-1,1.3828468E-1,-1.1297581E-2,-5.9036285E-1,5.9196975E-2,1.0313729E-2,1.0025264E0,4.5289794E-1,7.6189816E-2,2.9360784E-2,1.3133529E-2,5.3754877E-2,-5.149732E-2,-1.572654E-2,3.7852496E-2,-2.0354073E-2,-3.0377254E-2,-8.638256E-3,-1.9727802E-2,2.2838613E-2,3.1240318E-2,4.896686E-3,-2.908484E-2,1.6470246E-2,-3.66718E-2,5.6693885E-3,-3.6457542E-2,1.0488151E-2,5.4337014E-2,8.4762825E-3,3.4695614E-2,1.3782757E-2],"categories":[],"categories_nodes":[],"categories_segments":[],"categories_sizes":[],"default_left":[1,0,0,0,0,0,0,0,0,0,0,0,1,0,0,1,0,0,0,0,1,0,1,0,0,0,0,0,0,0,0,0,0,0,0,0,0,0,0,0,0,0,0,0,0,0,0,0,0,0,0],"id":3,"left_children":[1,3,5,7,9,11,13,15,17,19,21,23,25,27,29,31,-1,33,35,37,39,41,43,-1,45,47,49,-1,-1,-1,-1,-1,-1,-1,-1,-1,-1,-1,-1,-1,-1,-1,-1,-1,-1,-1,-1,-1,-1,-1,-1],"loss_changes":[2.7229462E2,7.6851036E1,5.0059006E1,1.979419E1,1.5602369E1,1.6528687E1,6.1231995E-1,1.3625847E1,9.695618E0,1.0411215E1,9.730782E0,1.4797636E1,1.7517494E1,1.0359192E-1,1.6175194E0,8.052528E0,0E0,6.673984E0,1.2539017E1,7.39198E0,7.445424E0,1.1285151E1,6.877512E0,0E0,1.3872476E1,5.8965073E0,7.5583725E0,0E0,0E0,0E0,0E0,0E0,0E0,0E0,0E0,0E0,0E0,0E0,0E0,0E0,0E0,0E0,0E0,0E0,0E0,0E0,0E0,0E0,0E0,0E0,0E0],"parents":[2147483647,0,0,1,1,2,2,3,3,4,4,5,5,6,6,7,7,8,8,9,9,10,10,11,11,12,12,13,13,14,14,15,15,17,17,18,18,19,19,20,20,21,21,22,22,24,24,25,25,26,26],"right_children":[2,4,6,8,10,12,14,16,18,20,22,24,26,28,30,32,-1,34,36,38,40,42,44,-1,46,48,50,-1,-1,-1,-1,-1,-1,-1,-1,-1,-1,-1,-1,-1,-1,-1,-1,-1,-1,-1,-1,-1,-1,-1,-1],"split_conditions":[5.55E2,-4.05E2,5.245E3,-1.729E3,5.7894737E-1,7.766323E-1,6.5E-1,7.8571427E-1,-5.8E1,4.6484375E-1,5.176471E-1,5.6041664E-1,1.85E2,-1.1E1,3.29E1,8.527778E-1,1.6520565E-2,5.714286E-1,1.8E1,6.761566E-1,1.923077E-2,1.85E2,6E0,5.9196975E-2,1.83E2,6.6976744E-1,-4.8E1,7.6189816E-2,2.9360784E-2,1.3133529E-2,5.3754877E-2,-5.149732E-2,-1.572654E-2,3.7852496E-2,-2.0354073E-2,-3.0377254E-2,-8.638256E-3,-1.9727802E-2,2.2838613E-2,3.1240318E-2,4.896686E-3,-2.908484E-2,1.6470246E-2,-3.66718E-2,5.6693885E-3,-3.6457542E-2,1.0488151E-2,5.4337014E-2,8.4762825E-3,3.4695614E-2,1.3782757E-2],"split_indices":[20,20,20,20,45,42,45,22,33,40,55,53,15,19,7,42,0,45,35,56,52,8,13,0,15,56,19,0,0,0,0,0,0,0,0,0,0,0,0,0,0,0,0,0,0,0,0,0,0,0,0],"split_type":[0,0,0,0,0,0,0,0,0,0,0,0,0,0,0,0,0,0,0,0,0,0,0,0,0,0,0,0,0,0,0,0,0,0,0,0,0,0,0,0,0,0,0,0,0,0,0,0,0,0,0],"sum_hessian":[1.4786356E3,1.0271306E3,4.5150507E2,4.5450238E2,5.7262823E2,3.7349918E2,7.800591E1,1.49362E2,3.0514035E2,4.576885E2,1.1493972E2,9.7195465E1,2.763037E2,6.458669E1,1.3419218E1,1.416567E2,7.7053123E0,1.5154301E1,2.8998605E2,7.208119E1,3.8560733E2,5.21122E1,6.2827515E1,9.2467785E0,8.7948685E1,8.893415E1,1.8736955E2,5.9362003E1,5.224688E0,6.7127476E0,6.70647E0,1.1978594E2,2.1870752E1,9.44463E0,5.709671E0,1.8151498E2,1.0847108E2,6.2598988E1,9.4822035E0,2.620418E1,3.5940314E2,1.8693604E1,3.34186E1,5.210748E1,1.0720038E1,1.6990053E1,7.095863E1,7.993876E1,8.995388E0,7.569481E1,1.1167474E2],"tree_param":{"num_deleted":"0","num_feature":"59","num_nodes":"51","size_leaf_vector":"1"}},{"base_weights":[4.64038E-3,-2.674415E-1,6.892073E-1,-5.624632E-1,-3.9195925E-2,5.318598E-1,1.3445767E0,-3.0870095E-1,-7.490891E-1,-4.0477815E-1,4.6598833E-2,2.1096177E-1,6.6540956E-1,7.006033E-2,2.6368497E-2,4.6293387E-1,-3.8795424E-1,-8.0268484E-1,-3.5087004E-2,2.8938169E-2,-6.179117E-1,-6.749956E-2,4.3092418E-1,-2.9096005E-3,7.28728E-1,4.5712028E-2,7.31241E-1,3.942999E-2,-1.5001798E-2,-7.453465E-3,-2.8510401E-2,-4.601196E-2,-2.5036499E-2,2.5405044E-2,-2.3999883E-2,-1.8005816E-2,2.968703E-2,-4.2959668E-2,-9.025265E-3,1.8490069E-2,-6.4123585E-3,2.6395435E-2,-1.7528415E-2,-3.59779E-2,1.0849445E-2,4.84184E-2,-4.578917E-3,2.1993928E-2,-1.4771185E-2,4.0580034E-2,1.0207794E-2],"categories":[],"categories_nodes":[],"categories_segments":[],"categories_sizes":[],"default_left":[0,0,1,1,0,0,0,1,0,0,0,0,0,0,0,0,0,0,0,0,0,1,1,0,0,0,0,0,0,0,0,0,0,0,0,0,0,0,0,0,0,0,0,0,0,0,0,0,0,0,0],"id":4,"left_children":[1,3,5,7,9,11,13,15,17,19,21,23,25,-1,-1,27,29,31,33,35,37,39,41,43,45,47,49,-1,-1,-1,-1,-1,-1,-1,-1,-1,-1,-1,-1,-1,-1,-1,-1,-1,-1,-1,-1,-1,-1,-1,-1],"loss_changes":[2.7643625E2,7.14517E1,4.1382416E1,2.1235565E1,1.8939394E1,1.4378967E1,1.4742584E0,1.2851137E1,1.0045532E1,1.0660181E1,2.1587072E1,1.1731067E1,9.7912445E0,0E0,0E0,5.709156E0,7.765131E0,7.353073E0,5.9566503E0,9.57869E0,7.6683617E0,1.0254236E1,9.092751E0,1.2747442E1,6.352644E0,3.9510093E0,8.778198E0,0E0,0E0,0E0,0E0,0E0,0E0,0E0,0E0,0E0,0E0,0E0,0E0,0E0,0E0,0E0,0E0,0E0,0E0,0E0,0E0,0E0,0E0,0E0,0E0],"parents":[2147483647,0,0,1,1,2,2,3,3,4,4,5,5,6,6,7,7,8,8,9,9,10,10,11,11,12,12,15,15,16,16,17,17,18,18,19,19,20,20,21,21,22,22,23,23,24,24,25,25,26,26],"right_children":[2,4,6,8,10,12,14,16,18,20,22,24,26,-1,-1,28,30,32,34,36,38,40,42,44,46,48,50,-1,-1,-1,-1,-1,-1,-1,-1,-1,-1,-1,-1,-1,-1,-1,-1,-1,-1,-1,-1,-1,-1,-1,-1],"split_conditions":[6.24E2,-4.05E2,5.245E3,2.173913E-1,2.19E1,2.26E1,1E0,5.534591E-1,1E1,2.55E1,8.2229966E-1,8.5E1,7.346939E-1,7.006033E-2,2.6368497E-2,2E0,7.2E1,2.2E1,5.714286E-1,2.37E1,1.047E3,1.25E-1,5.4241434E-2,7.910959E-1,6.5891474E-1,5E0,1E0,3.942999E-2,-1.5001798E-2,-7.453465E-3,-2.8510401E-2,-4.601196E-2,-2.5036499E-2,2.5405044E-2,-2.3999883E-2,-1.8005816E-2,2.968703E-2,-4.2959668E-2,-9.025265E-3,1.8490069E-2,-6.4123585E-3,2.6395435E-2,-1.7528415E-2,-3.59779E-2,1.0849445E-2,4.84184E-2,-4.578917E-3,2.1993928E-2,-1.4771185E-2,4.0580034E-2,1.0207794E-2],"split_indices":[20,20,20,58,14,14,16,56,23,7,42,11,42,0,0,0,4,35,47,7,5,58,37,42,41,50,16,0,0,0,0,0,0,0,0,0,0,0,0,0,0,0,0,0,0,0,0,0,0,0,0],"split_type":[0,0,0,0,0,0,0,0,0,0,0,0,0,0,0,0,0,0,0,0,0,0,0,0,0,0,0,0,0,0,0,0,0,0,0,0,0,0,0,0,0,0,0,0,0,0,0,0,0,0,0],"sum_hessian":[1.4781869E3,1.0590817E3,4.191052E2,4.6004794E2,5.990337E2,3.4234604E2,7.6759155E1,1.9833148E2,2.6171646E2,1.117403E2,4.872934E2,1.028804E2,2.3946565E2,6.9779755E1,6.979396E0,1.7120203E1,1.8121127E2,2.4309613E2,1.862034E1,3.76721E1,7.40682E1,3.776499E2,1.09643486E2,7.491764E1,2.7962755E1,2.348404E1,2.1598161E2,1.1928057E1,5.1921463E0,8.078197E1,1.0042931E2,1.7055457E2,7.254157E1,8.192317E0,1.0428022E1,2.2950354E1,1.4721748E1,4.587166E1,2.819654E1,4.4200848E1,3.3344907E2,9.840476E1,1.1238729E1,1.5989909E1,5.8927734E1,2.122168E1,6.741076E0,1.0492306E1,1.2991734E1,1.8600395E2,2.9977648E1],"tree_param":{"num_deleted":"0","num_feature":"59","num_nodes":"51","size_leaf_vector":"1"}},{"base_weights":[8.6504966E-5,3.5041162E-1,-4.3177578E-1,2.1119574E-1,9.508399E-1,-1.614717E-4,-5.5868065E-1,5.0886303E-1,7.7695146E-2,1.1805428E0,4.1259262E-1,1.3045089E-1,-4.4848445E-1,-4.3813932E-1,-8.837531E-1,9.5221594E-2,6.0557544E-1,-3.9053205E-1,1.6969714E-1,8.663762E-1,7.4570015E-2,1.4787608E-2,6.979104E-1,-6.675835E-2,3.935851E-1,-8.149947E-1,7.2821125E-2,-5.538473E-1,-1.8644927E-1,-1.074415E0,-6.1969805E-1,3.0143186E-2,-1.4212968E-2,3.3595033E-2,-9.369402E-3,1.1565971E-2,-2.4782836E-2,1.0869187E-2,-2.5632832E-2,5.279848E-3,5.1024076E-2,-2.1463588E-2,2.9835884E-2,9.555815E-3,5.1816937E-2,-9.278315E-3,3.2372847E-2,3.302592E-2,-1.968443E-2,-1.1161992E-2,-5.3017892E-2,1.8069137E-2,-1.801025E-2,-1.9003008E-2,-4.3776073E-2,-1.3158885E-2,2.5371833E-2,-1.913096E-2,-5.6338586E-2,-3.840129E-2,-1.144317E-3],"categories":[],"categories_nodes":[],"categories_segments":[],"categories_sizes":[],"default_left":[1,1,1,1,0,1,0,1,0,0,0,0,0,0,0,1,1,0,0,0,0,0,0,0,0,0,0,0,0,0,0,0,0,0,0,0,0,0,0,0,0,0,0,0,0,0,0,0,0,0,0,0,0,0,0,0,0,0,0,0,0],"id":5,"left_children":[1,3,5,7,9,11,13,15,17,19,21,23,25,27,29,31,33,35,37,39,-1,41,43,45,47,49,51,53,55,57,59,-1,-1,-1,-1,-1,-1,-1,-1,-1,-1,-1,-1,-1,-1,-1,-1,-1,-1,-1,-1,-1,-1,-1,-1,-1,-1,-1,-1,-1,-1],"loss_changes":[2.2456026E2,6.7899124E1,3.6412292E1,2.64711E1,1.7503479E1,9.196127E0,1.8968658E1,8.093243E0,2.025064E1,6.465744E0,5.699998E0,6.389931E0,6.9475894E0,1.0777496E1,4.8503723E0,8.743133E0,9.156448E0,5.400528E0,1.3061308E1,6.690838E0,0E0,7.0101476E0,4.4377823E0,6.4769835E0,1.1820548E1,2.3462439E0,2.562298E0,1.3496696E1,7.025037E0,1.4194107E0,5.6234303E0,0E0,0E0,0E0,0E0,0E0,0E0,0E0,0E0,0E0,0E0,0E0,0E0,0E0,0E0,0E0,0E0,0E0,0E0,0E0,0E0,0E0,0E0,0E0,0E0,0E0,0E0,0E0,0E0,0E0,0E0],"parents":[2147483647,0,0,1,1,2,2,3,3,4,4,5,5,6,6,7,7,8,8,9,9,10,10,11,11,12,12,13,13,14,14,15,15,16,16,17,17,18,18,19,19,21,21,22,22,23,23,24,24,25,25,26,26,27,27,28,28,29,29,30,30],"right_children":[2,4,6,8,10,12,14,16,18,20,22,24,26,28,30,32,34,36,38,40,-1,42,44,46,48,50,52,54,56,58,60,-1,-1,-1,-1,-1,-1,-1,-1,-1,-1,-1,-1,-1,-1,-1,-1,-1,-1,-1,-1,-1,-1,-1,-1,-1,-1,-1,-1,-1,-1],"split_conditions":[6E0,4.095E3,1.7663817E-1,-5.3E1,-1.3E1,8.635347E-1,2.835E3,8.94E2,3.5E-1,3.05E1,7.25E-1,1.2E1,7.356021E-1,1.8E1,1.134E3,1.85E2,6.347826E-2,2.1003917E-2,3.7E1,2.8185556E-2,7.4570015E-2,6.507937E-1,1.9E2,2.6143792E-1,1.94E2,2.8E1,2.0609756E-1,2.3E1,8.507463E-1,2.5E1,1.1604585E-1,3.0143186E-2,-1.4212968E-2,3.3595033E-2,-9.369402E-3,1.1565971E-2,-2.4782836E-2,1.0869187E-2,-2.5632832E-2,5.279848E-3,5.1024076E-2,-2.1463588E-2,2.9835884E-2,9.555815E-3,5.1816937E-2,-9.278315E-3,3.2372847E-2,3.302592E-2,-1.968443E-2,-1.1161992E-2,-5.3017892E-2,1.8069137E-2,-1.801025E-2,-1.9003008E-2,-4.3776073E-2,-1.3158885E-2,2.5371833E-2,-1.913096E-2,-5.6338586E-2,-3.840129E-2,-1.144317E-3],"split_indices":[19,5,58,19,19,57,12,5,31,7,22,35,39,35,5,15,37,37,50,37,0,56,15,43,15,19,51,50,57,7,51,0,0,0,0,0,0,0,0,0,0,0,0,0,0,0,0,0,0,0,0,0,0,0,0,0,0,0,0,0,0],"split_type":[0,0,0,0,0,0,0,0,0,0,0,0,0,0,0,0,0,0,0,0,0,0,0,0,0,0,0,0,0,0,0,0,0,0,0,0,0,0,0,0,0,0,0,0,0,0,0,0,0,0,0,0,0,0,0,0,0,0,0,0,0],"sum_hessian":[1.4782816E3,8.165031E2,6.6177856E2,6.6611273E2,1.5039035E2,1.5104964E2,5.107289E2,2.036338E2,4.6247894E2,1.0289769E2,4.749266E1,1.1861884E2,3.2430794E1,3.7771167E2,1.3301723E2,3.9716988E1,1.6391681E2,7.435063E1,3.8812833E2,5.6826946E1,4.607074E1,2.1154057E1,2.6338604E1,6.908278E1,4.9536068E1,1.8050238E1,1.4380556E1,2.5628824E2,1.2142344E2,7.189702E1,6.1120205E1,1.6234152E1,2.3482834E1,1.5168736E2,1.2229446E1,1.0230739E1,6.4119896E1,3.646863E2,2.344201E1,1.0423652E1,4.6403294E1,1.2444725E1,8.709331E0,1.242556E1,1.3913044E1,6.1133854E1,7.9489207E0,3.7353867E1,1.21822E1,6.9699507E0,1.1080287E1,8.927656E0,5.4529004E0,1.7064197E2,8.564627E1,1.11010315E2,1.0413127E1,6.8120685E0,6.5084946E1,4.826427E1,1.2855934E1],"tree_param":{"num_deleted":"0","num_feature":"59","num_nodes":"61","size_leaf_vector":"1"}},{"base_weights":[-4.9385494E-3,-2.51546E-1,6.0950744E-1,-5.831985E-1,-6.861439E-2,3.9576125E-1,1.0467246E0,1.1911061E-1,-6.489502E-1,2.078517E-1,-1.8654144E-1,1.835167E-1,6.559456E-1,1.1149677E0,7.7428855E-3,6.343351E-1,-4.374239E-1,-4.0101296E-1,-8.493794E-1,3.4410024E-1,-8.033001E-2,3.5094697E-2,-3.1412232E-1,6.321887E-1,-4.659826E-2,7.174094E-1,-1.6958399E-2,5.402895E-1,1.2157971E0,8.070217E-3,4.991115E-2,1.5076095E-2,-3.99413E-2,-7.7297734E-3,-3.1621434E-2,-3.1841736E-2,-5.282746E-2,-4.5242137E-3,2.5445307E-2,-2.2671271E-2,8.877897E-3,-8.188949E-3,1.4426321E-2,-2.7353687E-2,-7.479757E-3,4.074419E-2,-1.3922878E-2,2.253734E-2,-1.3211437E-2,2.6783383E-2,5.265971E-2,1.2144375E-3,3.9906397E-2,1.9979848E-2,6.229682E-2],"categories":[],"categories_nodes":[],"categories_segments":[],"categories_sizes":[],"default_left":[1,0,0,0,0,0,0,0,1,0,0,0,0,0,0,0,0,0,0,0,0,0,0,0,0,0,0,0,0,0,0,0,0,0,0,0,0,0,0,0,0,0,0,0,0,0,0,0,0,0,0,0,0,0,0],"id":6,"left_children":[1,3,5,7,9,11,13,15,17,19,21,23,25,27,-1,29,31,33,35,37,39,41,43,45,47,49,-1,51,53,-1,-1,-1,-1,-1,-1,-1,-1,-1,-1,-1,-1,-1,-1,-1,-1,-1,-1,-1,-1,-1,-1,-1,-1,-1,-1],"loss_changes":[2.2287619E2,6.355683E1,3.81261E1,1.74431E1,2.22814E1,1.553009E1,7.7899323E0,1.0708299E1,1.5937332E1,8.120356E0,1.3553522E1,1.6881252E1,8.566055E0,5.348572E0,0E0,2.8052082E0,5.6184783E0,8.730257E0,6.1730347E0,1.0133461E1,6.7981443E0,9.082043E0,1.13969345E1,9.888584E0,1.2296273E1,5.72995E0,0E0,3.1686811E0,1.0908661E0,0E0,0E0,0E0,0E0,0E0,0E0,0E0,0E0,0E0,0E0,0E0,0E0,0E0,0E0,0E0,0E0,0E0,0E0,0E0,0E0,0E0,0E0,0E0,0E0,0E0,0E0],"parents":[2147483647,0,0,1,1,2,2,3,3,4,4,5,5,6,6,7,7,8,8,9,9,10,10,11,11,12,12,13,13,15,15,16,16,17,17,18,18,19,19,20,20,21,21,22,22,23,23,24,24,25,25,27,27,28,28],"right_children":[2,4,6,8,10,12,14,16,18,20,22,24,26,28,-1,30,32,34,36,38,40,42,44,46,48,50,-1,52,54,-1,-1,-1,-1,-1,-1,-1,-1,-1,-1,-1,-1,-1,-1,-1,-1,-1,-1,-1,-1,-1,-1,-1,-1,-1,-1],"split_conditions":[6.41E2,-5.85E2,2.9E3,1.3E1,1.6949153E-1,8.094768E-2,1.4E1,6E-1,2.2033899E-1,5.365854E-1,1.1E1,2.857143E-1,4.2E1,1.7E1,7.7428855E-3,3.015E3,2.7E1,0E0,2.725E3,2.29E1,1.8055555E-1,1.3E1,2.38E1,1E0,4.6153846E-1,2.74E1,-1.6958399E-2,8.1395346E-1,1.98E1,8.070217E-3,4.991115E-2,1.5076095E-2,-3.99413E-2,-7.7297734E-3,-3.1621434E-2,-3.1841736E-2,-5.282746E-2,-4.5242137E-3,2.5445307E-2,-2.2671271E-2,8.877897E-3,-8.188949E-3,1.4426321E-2,-2.7353687E-2,-7.479757E-3,4.074419E-2,-1.3922878E-2,2.253734E-2,-1.3211437E-2,2.6783383E-2,5.265971E-2,1.2144375E-3,3.9906397E-2,1.9979848E-2,6.229682E-2],"split_indices":[20,20,20,6,58,36,33,47,58,47,50,47,50,11,0,5,50,33,12,14,43,35,14,17,46,14,0,30,14,0,0,0,0,0,0,0,0,0,0,0,0,0,0,0,0,0,0,0,0,0,0,0,0,0,0],"split_type":[0,0,0,0,0,0,0,0,0,0,0,0,0,0,0,0,0,0,0,0,0,0,0,0,0,0,0,0,0,0,0,0,0,0,0,0,0,0,0,0,0,0,0,0,0,0,0,0,0,0,0,0,0,0,0],"sum_hessian":[1.4648326E3,1.0465659E3,4.1826666E2,3.697145E2,6.7685144E2,2.8476608E2,1.3350058E2,3.1441902E1,3.382726E2,2.0170058E2,4.7515088E2,1.5964894E2,1.2511712E2,1.2331446E2,1.0186125E1,1.6109127E1,1.5332774E1,1.552392E2,1.8303343E2,1.3655638E2,6.5144196E1,1.7438333E2,3.0076755E2,5.2345425E1,1.0730352E2,1.1862724E2,6.4898815E0,2.1253761E1,1.020607E2,8.888178E0,7.2209496E0,5.199208E0,1.0133567E1,7.76062E1,7.763299E1,9.63774E1,8.665602E1,3.7918957E1,9.863743E1,2.5695272E1,3.944892E1,9.830355E1,7.607978E1,1.2160857E2,1.7915898E2,4.386137E1,8.484055E0,3.1683838E1,7.561968E1,8.20201E1,3.660714E1,8.1753645E0,1.3078396E1,5.157809E0,9.690289E1],"tree_param":{"num_deleted":"0","num_feature":"59","num_nodes":"55","size_leaf_vector":"1"}},{"base_weights":[-8.1712246E-4,-2.599093E-1,6.0567415E-1,-5.279087E-1,-5.0519828E-2,4.0217328E-1,1.0661461E0,-8.219788E-1,-3.9273024E-1,1.4039715E-1,-2.1382263E-1,7.320622E-2,5.3954476E-1,6.720539E-1,1.2413837E0,1.070055E-1,-9.040989E-1,-5.665244E-1,-1.9996616E-1,-3.6221838E-1,2.1143547E-1,5.547774E-1,-2.6539934E-1,-3.7401292E-2,5.060127E-2,3.0729893E-1,7.3962396E-1,9.2643845E-1,4.300085E-2,7.104849E-2,9.519345E-1,-2.0461148E-2,2.7139056E-2,-4.8602834E-2,2.8313836E-3,-3.5046842E-2,-1.09582655E-2,1.8969832E-3,-2.0019915E-2,1.5095199E-2,-3.004407E-2,2.101127E-3,1.9695507E-2,-6.133217E-3,4.0181708E-2,-3.016896E-2,-7.847227E-3,-2.797817E-2,7.344564E-3,2.9346481E-2,-1.10044E-3,4.4425692E-2,3.5704721E-3,5.3560402E-2,1.2388877E-2,-1.8814161E-2,2.6353199E-2,1.5155825E-2,5.1880147E-2],"categories":[],"categories_nodes":[],"categories_segments":[],"categories_sizes":[],"default_left":[1,0,0,0,0,0,0,0,0,0,0,0,1,0,0,0,0,0,0,0,0,0,0,0,0,1,0,0,0,0,0,0,0,0,0,0,0,0,0,0,0,0,0,0,0,0,0,0,0,0,0,0,0,0,0,0,0,0,0],"id":7,"left_children":[1,3,5,7,9,11,13,15,17,19,21,23,25,27,29,31,33,35,37,39,41,43,45,47,-1,49,51,53,55,-1,57,-1,-1,-1,-1,-1,-1,-1,-1,-1,-1,-1,-1,-1,-1,-1,-1,-1,-1,-1,-1,-1,-1,-1,-1,-1,-1,-1,-1],"loss_changes":[2.3341708E2,5.8325684E1,4.0378525E1,1.7166039E1,1.841005E1,1.4034046E1,6.7828064E0,1.1040672E1,1.0322689E1,9.966866E0,1.3043736E1,1.0053571E1,9.561905E0,7.549816E0,5.959015E-1,3.8445115E0,8.639015E0,7.2772217E0,7.462218E0,6.0722413E0,7.3953648E0,3.8295736E0,1.0710194E1,8.76568E0,0E0,9.906175E0,1.1379753E1,2.5422955E0,4.0344386E0,0E0,1.4670258E0,0E0,0E0,0E0,0E0,0E0,0E0,0E0,0E0,0E0,0E0,0E0,0E0,0E0,0E0,0E0,0E0,0E0,0E0,0E0,0E0,0E0,0E0,0E0,0E0,0E0,0E0,0E0,0E0],"parents":[2147483647,0,0,1,1,2,2,3,3,4,4,5,5,6,6,7,7,8,8,9,9,10,10,11,11,12,12,13,13,14,14,15,15,16,16,17,17,18,18,19,19,20,20,21,21,22,22,23,23,25,25,26,26,27,27,28,28,30,30],"right_children":[2,4,6,8,10,12,14,16,18,20,22,24,26,28,30,32,34,36,38,40,42,44,46,48,-1,50,52,54,56,-1,58,-1,-1,-1,-1,-1,-1,-1,-1,-1,-1,-1,-1,-1,-1,-1,-1,-1,-1,-1,-1,-1,-1,-1,-1,-1,-1,-1,-1],"split_conditions":[5.71E2,-4.05E2,2.9E3,-1.952E3,4.4827586E-1,2.26E1,6.282051E-1,9E0,3.362832E-2,1.875E-1,2.5E-1,1.88E2,3.2379925E-2,6.0833335E-1,2E1,7.7E1,1.8029436E-1,5.263158E-1,6.9E1,4.8913044E-1,7.9012346E-1,7.406015E-1,5.681818E-1,7.766323E-1,5.060127E-2,7.9183674E-1,2.5050506E-1,5.3846157E-1,5.03876E-1,7.104849E-2,4.8387095E-1,-2.0461148E-2,2.7139056E-2,-4.8602834E-2,2.8313836E-3,-3.5046842E-2,-1.09582655E-2,1.8969832E-3,-2.0019915E-2,1.5095199E-2,-3.004407E-2,2.101127E-3,1.9695507E-2,-6.133217E-3,4.0181708E-2,-3.016896E-2,-7.847227E-3,-2.797817E-2,7.344564E-3,2.9346481E-2,-1.10044E-3,4.4425692E-2,3.5704721E-3,5.3560402E-2,1.2388877E-2,-1.8814161E-2,2.6353199E-2,1.5155825E-2,5.1880147E-2],"split_indices":[20,20,20,20,44,14,41,6,52,30,46,11,52,41,50,18,36,30,4,41,42,42,41,42,0,57,58,55,55,0,55,0,0,0,0,0,0,0,0,0,0,0,0,0,0,0,0,0,0,0,0,0,0,0,0,0,0,0,0],"split_type":[0,0,0,0,0,0,0,0,0,0,0,0,0,0,0,0,0,0,0,0,0,0,0,0,0,0,0,0,0,0,0,0,0,0,0,0,0,0,0,0,0,0,0,0,0,0,0,0,0,0,0,0,0,0,0,0,0,0,0],"sum_hessian":[1.47943E3,1.0377985E3,4.4163162E2,4.531914E2,5.8460706E2,3.101737E2,1.3145792E2,1.3791846E2,3.1527295E2,2.697102E2,3.1489685E2,9.272395E1,2.1744974E2,4.4926918E1,8.653099E1,1.1127665E1,1.26790794E2,1.6273544E2,1.525375E2,3.187675E1,2.3783347E2,1.796167E1,2.9693518E2,8.5527916E1,7.196037E0,1.04156136E2,1.1329361E2,3.098041E1,1.3946509E1,4.6162334E1,4.0368656E1,5.177313E0,5.9503517E0,1.183816E2,8.409191E0,1.1513114E2,4.76043E1,7.08606E1,8.16769E1,8.216881E0,2.365987E1,1.2524476E2,1.125887E2,5.2342296E0,1.272744E1,6.8810234E1,2.2812495E2,2.0718027E1,6.480989E1,5.505738E1,4.9098755E1,9.184081E1,2.1452795E1,2.4103493E1,6.876918E0,7.831242E0,6.1152673E0,6.296472E0,3.407218E1],"tree_param":{"num_deleted":"0","num_feature":"59","num_nodes":"59","size_leaf_vector":"1"}},{"base_weights":[-1.1743408E-2,-2.9836538E-1,4.242253E-1,-5.671311E-1,-1.0352792E-1,2.3266034E-1,8.4869087E-1,1.5933608E-1,-6.122528E-1,1.3850528E-1,-1.9727515E-1,4.0499958E-1,-6.880872E-2,6.508935E-1,1.1301566E0,5.657095E-1,-3.041238E-2,-3.9419365E-1,-7.8079623E-1,-7.584702E-2,3.4660783E-1,-1.1200629E-1,-4.9277258E-1,4.9255735E-1,-4.8803815E-1,1.0114965E-1,-4.4641155E-1,7.111756E-1,-1.8994356E-2,1.2065911E0,1.2272694E-2,3.7961558E-2,3.4782686E-3,6.2327734E-3,-2.402786E-2,-4.199853E-2,-1.1697724E-2,-1.05266E-2,2.0569835E-2,2.6320403E-2,-1.3986972E-2,2.162902E-3,-1.4941961E-2,-3.5214722E-2,8.928957E-3,3.6342328E-3,3.322464E-2,-4.012919E-3,-3.6844067E-2,5.036892E-4,5.1470578E-2,-3.0095443E-2,1.5878173E-2,4.1397475E-2,1.23647405E-2,6.8028875E-2,3.587692E-2],"categories":[],"categories_nodes":[],"categories_segments":[],"categories_sizes":[],"default_left":[1,0,0,0,0,0,0,0,1,0,0,0,0,0,0,0,0,1,0,0,0,1,0,0,0,0,0,0,0,0,0,0,0,0,0,0,0,0,0,0,0,0,0,0,0,0,0,0,0,0,0,0,0,0,0,0,0],"id":8,"left_children":[1,3,5,7,9,11,13,15,17,19,21,23,25,27,29,31,-1,33,35,37,39,41,43,45,47,49,51,53,-1,55,-1,-1,-1,-1,-1,-1,-1,-1,-1,-1,-1,-1,-1,-1,-1,-1,-1,-1,-1,-1,-1,-1,-1,-1,-1,-1,-1],"loss_changes":[1.8448122E2,4.6464188E1,4.702746E1,1.2540634E1,1.1881152E1,2.126341E1,7.8689423E0,8.590554E0,1.2028854E1,6.633793E0,9.310171E0,2.1036709E1,9.816032E0,7.8545685E0,3.8868637E0,1.5119791E0,0E0,7.335766E0,5.743721E0,5.1717024E0,8.89926E0,8.617629E0,1.221133E1,1.704443E1,2.3295627E0,8.969929E0,6.201318E0,5.2437973E0,0E0,1.9086914E0,0E0,0E0,0E0,0E0,0E0,0E0,0E0,0E0,0E0,0E0,0E0,0E0,0E0,0E0,0E0,0E0,0E0,0E0,0E0,0E0,0E0,0E0,0E0,0E0,0E0,0E0,0E0],"parents":[2147483647,0,0,1,1,2,2,3,3,4,4,5,5,6,6,7,7,8,8,9,9,10,10,11,11,12,12,13,13,14,14,15,15,17,17,18,18,19,19,20,20,21,21,22,22,23,23,24,24,25,25,26,26,27,27,29,29],"right_children":[2,4,6,8,10,12,14,16,18,20,22,24,26,28,30,32,-1,34,36,38,40,42,44,46,48,50,52,54,-1,56,-1,-1,-1,-1,-1,-1,-1,-1,-1,-1,-1,-1,-1,-1,-1,-1,-1,-1,-1,-1,-1,-1,-1,-1,-1,-1,-1],"split_conditions":[2.6E2,-5.85E2,1.899E3,1.6E1,1.6949153E-1,6.3704634E-1,5.245E3,5E0,2.2033899E-1,8.0139375E-1,8.1707317E-1,7.727825E-1,5.1843315E-1,3.2960895E-1,1E0,1E0,-3.041238E-2,7.121402E-1,7.777778E-1,4E0,1.7058502E-1,1.3E1,1.384E3,2.26E1,8.5393256E-1,8.181818E-1,5E0,9.964994E-2,-1.8994356E-2,4.1875E-2,1.2272694E-2,3.7961558E-2,3.4782686E-3,6.2327734E-3,-2.402786E-2,-4.199853E-2,-1.1697724E-2,-1.05266E-2,2.0569835E-2,2.6320403E-2,-1.3986972E-2,2.162902E-3,-1.4941961E-2,-3.5214722E-2,8.928957E-3,3.6342328E-3,3.322464E-2,-4.012919E-3,-3.6844067E-2,5.036892E-4,5.1470578E-2,-3.0095443E-2,1.5878173E-2,4.1397475E-2,1.23647405E-2,6.8028875E-2,3.587692E-2],"split_indices":[20,20,20,4,58,53,20,13,58,57,57,54,55,58,16,33,0,54,32,2,51,19,12,14,57,32,2,51,0,52,0,0,0,0,0,0,0,0,0,0,0,0,0,0,0,0,0,0,0,0,0,0,0,0,0,0,0],"split_type":[0,0,0,0,0,0,0,0,0,0,0,0,0,0,0,0,0,0,0,0,0,0,0,0,0,0,0,0,0,0,0,0,0,0,0,0,0,0,0,0,0,0,0,0,0,0,0,0,0,0,0,0,0,0,0,0,0],"sum_hessian":[1.4703047E3,8.876666E2,5.8263806E2,3.706485E2,5.170181E2,4.0465717E2,1.7798088E2,2.1231037E1,3.4941745E2,1.4394748E2,3.7307065E2,2.5681488E2,1.4784229E2,1.10362335E2,6.761854E1,1.4397647E1,6.8333898E0,1.5669897E2,1.9271848E2,7.184817E1,7.209931E1,2.927358E2,8.033484E1,2.3510898E2,2.1705889E1,1.0346793E2,4.4374355E1,1.0514352E2,5.218823E0,6.1236458E1,6.38208E0,9.213226E0,5.1844206E0,2.2171051E1,1.3452792E2,1.724494E2,2.026908E1,5.762349E1,1.4224674E1,5.6390457E1,1.5708858E1,1.6113373E2,1.3160207E2,6.0976006E1,1.9358835E1,6.954521E1,1.6556377E2,9.729582E0,1.1976307E1,9.698488E1,6.4830565E0,3.739873E1,6.975624E0,8.21174E1,2.302611E1,4.2506405E1,1.8730051E1],"tree_param":{"num_deleted":"0","num_feature":"59","num_nodes":"57","size_leaf_vector":"1"}},{"base_weights":[1.4593242E-2,-2.3170105E-1,5.449979E-1,-5.3355914E-1,-5.2710973E-2,4.3107715E-1,1.1175307E0,-7.5982225E-1,-3.7762257E-1,1.3202243E-1,-1.7007071E-1,4.926007E-1,-1.5072061E-1,8.899552E-3,1.1794808E0,2.950052E-1,-8.5541683E-1,3.7089568E-2,-4.1992098E-1,-1.9159538E-1,3.1458265E-1,-2.5755277E-1,1.7446847E-1,2.1490505E-1,6.4593744E-1,-5.056873E-1,2.3460262E-1,1.9395495E-2,1.231414E0,-1.1512241E-2,3.509797E-2,-4.6128005E-2,4.44114E-3,-1.1224763E-2,-2.9521007E-2,-3.264645E-2,2.9481433E-3,-2.1571336E-2,1.8642051E-2,-1.0485528E-2,-4.5425426E-2,-1.87026E-3,4.9451478E-2,2.8573457E-2,-9.866108E-3,2.0648327E-2,4.5387015E-2,-1.4927242E-3,-4.3342117E-2,-1.4692368E-2,2.5710095E-2,6.537097E-2,2.8706092E-2],"categories":[],"categories_nodes":[],"categories_segments":[],"categories_sizes":[],"default_left":[1,0,0,0,0,0,0,0,0,0,0,0,0,0,0,0,0,0,0,0,1,0,0,0,0,0,0,0,0,0,0,0,0,0,0,0,0,0,0,0,0,0,0,0,0,0,0,0,0,0,0,0,0],"id":9,"left_children":[1,3,5,7,9,11,13,15,17,19,21,23,25,-1,27,29,31,-1,33,35,37,39,41,43,45,47,49,-1,51,-1,-1,-1,-1,-1,-1,-1,-1,-1,-1,-1,-1,-1,-1,-1,-1,-1,-1,-1,-1,-1,-1,-1,-1],"loss_changes":[1.9174779E2,5.4079422E1,2.8911194E1,1.22938E1,1.3783373E1,1.4292282E1,3.7562256E0,1.57968445E1,1.166777E1,1.4801054E1,1.1835052E1,1.4750008E1,5.8116393E0,0E0,1.4511948E0,3.610887E0,8.964951E0,0E0,6.9442253E0,1.0647751E1,7.408099E0,9.107416E0,1.398565E1,1.9623363E1,1.2780167E1,3.653637E0,3.5820405E0,0E0,9.6850586E-1,0E0,0E0,0E0,0E0,0E0,0E0,0E0,0E0,0E0,0E0,0E0,0E0,0E0,0E0,0E0,0E0,0E0,0E0,0E0,0E0,0E0,0E0,0E0,0E0],"parents":[2147483647,0,0,1,1,2,2,3,3,4,4,5,5,6,6,7,7,8,8,9,9,10,10,11,11,12,12,14,14,15,15,16,16,18,18,19,19,20,20,21,21,22,22,23,23,24,24,25,25,26,26,28,28],"right_children":[2,4,6,8,10,12,14,16,18,20,22,24,26,-1,28,30,32,-1,34,36,38,40,42,44,46,48,50,-1,52,-1,-1,-1,-1,-1,-1,-1,-1,-1,-1,-1,-1,-1,-1,-1,-1,-1,-1,-1,-1,-1,-1,-1,-1],"split_conditions":[5.03E2,-5.85E2,5.245E3,-1.729E3,4.2857143E-1,7.727825E-1,5.294118E-1,9E0,-1.67E3,2.36E1,8.2978725E-1,7.9012346E-1,6.333333E-1,8.899552E-3,2.33E1,7E-1,1.8029436E-1,3.7089568E-2,7.1E1,7.446808E-1,6.363636E-1,6.72E-1,2E0,6.2753034E-1,2.46E1,3E1,5.625E-1,1.9395495E-2,3.4E1,-1.1512241E-2,3.509797E-2,-4.6128005E-2,4.44114E-3,-1.1224763E-2,-2.9521007E-2,-3.264645E-2,2.9481433E-3,-2.1571336E-2,1.8642051E-2,-1.0485528E-2,-4.5425426E-2,-1.87026E-3,4.9451478E-2,2.8573457E-2,-9.866108E-3,2.0648327E-2,4.5387015E-2,-1.4927242E-3,-4.3342117E-2,-1.4692368E-2,2.5710095E-2,6.537097E-2,2.8706092E-2],"split_indices":[20,20,20,20,44,54,31,6,20,14,42,42,29,0,7,29,36,0,4,42,42,41,1,53,14,7,25,0,50,0,0,0,0,0,0,0,0,0,0,0,0,0,0,0,0,0,0,0,0,0,0,0,0],"split_type":[0,0,0,0,0,0,0,0,0,0,0,0,0,0,0,0,0,0,0,0,0,0,0,0,0,0,0,0,0,0,0,0,0,0,0,0,0,0,0,0,0,0,0,0,0,0,0,0,0,0,0,0,0],"sum_hessian":[1.4619064E3,9.994838E2,4.6242252E2,3.6983395E2,6.296499E2,3.9006702E2,7.235549E1,1.4615129E2,2.2368266E2,2.4446617E2,3.8518372E2,3.531792E2,3.6887825E1,5.194517E0,6.716097E1,1.1624465E1,1.3452682E2,6.338005E0,2.1734467E2,8.811661E1,1.5634956E2,3.0779004E2,7.739368E1,1.28204E2,2.249752E2,1.8712458E1,1.8175365E1,5.6993327E0,6.1461643E1,5.6433487E0,5.981117E0,1.2566022E2,8.866604E0,1.0450796E2,1.128367E2,2.9317978E1,5.8798634E1,9.93347E0,1.4641609E2,2.9041254E2,1.7377502E1,6.3689724E1,1.3703956E1,6.81218E1,6.0082184E1,1.23133965E2,1.0184124E2,9.475797E0,9.23666E0,6.2360992E0,1.1939267E1,5.243147E1,9.030173E0],"tree_param":{"num_deleted":"0","num_feature":"59","num_nodes":"53","size_leaf_vector":"1"}},{"base_weights":[-1.708168E-2,2.755749E-1,-3.9685702E-1,1.6317183E-1,7.7487093E-1,-4.4027817E-2,-4.8545253E-1,4.7766745E-1,6.3522056E-2,1.0795974E-1,9.384976E-1,-2.9362443E-1,2.2025958E-1,-7.723312E-1,-4.070984E-1,5.8179308E-2,6.3177323E-1,-2.2825165E-1,1.5698785E-1,3.3991553E-2,-1.9793311E-1,1.7246522E-1,1.0462257E0,2.4688989E-2,-6.771066E-1,5.1285315E-1,-1.0724526E-2,7.411392E-3,-8.285983E-1,-1.3483714E-1,-4.7481573E-1,4.4578914E-2,-8.447888E-3,3.6781687E-2,8.655376E-5,1.1883099E-2,-1.6866641E-2,-3.7372657E-3,1.6881702E-2,-2.2741036E-2,1.6835209E-2,4.6336964E-2,-1.6889146E-2,5.916964E-2,2.9749513E-2,-1.7545829E-2,2.5911225E-2,-4.2659998E-2,4.839635E-3,-1.2918206E-2,4.110343E-2,1.6107056E-2,-1.9579738E-2,-5.810931E-2,-3.2647934E-2,-1.8373678E-2,1.9109514E-2,-1.4408353E-2,-3.2318857E-2],"categories":[],"categories_nodes":[],"categories_segments":[],"categories_sizes":[],"default_left":[0,0,1,0,0,0,0,0,0,0,0,0,0,0,0,0,1,0,0,0,0,0,1,1,0,1,0,0,0,0,1,0,0,0,0,0,0,0,0,0,0,0,0,0,0,0,0,0,0,0,0,0,0,0,0,0,0,0,0],"id":10,"left_children":[1,3,5,7,9,11,13,15,17,19,21,23,25,27,29,31,33,35,37,-1,39,41,43,45,47,49,51,-1,53,55,57,-1,-1,-1,-1,-1,-1,-1,-1,-1,-1,-1,-1,-1,-1,-1,-1,-1,-1,-1,-1,-1,-1,-1,-1,-1,-1,-1,-1],"loss_changes":[1.6122253E2,4.5605053E1,1.9668678E1,2.0987774E1,1.6038673E1,8.769278E0,1.03918E1,1.0322037E1,1.4130719E1,6.15803E0,9.350441E0,8.368113E0,4.399642E0,5.798786E0,7.227478E0,9.284645E0,7.6991043E0,6.6431804E0,1.6453636E1,0E0,3.721949E0,8.009411E0,4.3554E0,7.9845457E0,4.4741344E0,7.474869E0,5.34581E0,0E0,3.5388641E0,1.0566489E1,9.7229E0,0E0,0E0,0E0,0E0,0E0,0E0,0E0,0E0,0E0,0E0,0E0,0E0,0E0,0E0,0E0,0E0,0E0,0E0,0E0,0E0,0E0,0E0,0E0,0E0,0E0,0E0,0E0,0E0],"parents":[2147483647,0,0,1,1,2,2,3,3,4,4,5,5,6,6,7,7,8,8,9,9,10,10,11,11,12,12,13,13,14,14,15,15,16,16,17,17,18,18,20,20,21,21,22,22,23,23,24,24,25,25,26,26,28,28,29,29,30,30],"right_children":[2,4,6,8,10,12,14,16,18,20,22,24,26,28,30,32,34,36,38,-1,40,42,44,46,48,50,52,-1,54,56,58,-1,-1,-1,-1,-1,-1,-1,-1,-1,-1,-1,-1,-1,-1,-1,-1,-1,-1,-1,-1,-1,-1,-1,-1,-1,-1,-1,-1],"split_conditions":[6E0,4.095E3,1.6949153E-1,2.777778E-1,1E1,3.01E1,1.1E1,8.77E2,2.24E1,2.8708134E-2,5.5E-1,2E0,3.3E1,1.5E1,5E1,2.33E2,1.96E2,2.2222222E-1,5.135135E-1,3.3991553E-2,1.3E1,1.85E2,7.4379086E-1,8.0597013E-1,5.3571427E-1,4.7115386E-1,8.292683E-1,7.411392E-3,4.1666666E-1,1.9E2,3E0,4.4578914E-2,-8.447888E-3,3.6781687E-2,8.655376E-5,1.1883099E-2,-1.6866641E-2,-3.7372657E-3,1.6881702E-2,-2.2741036E-2,1.6835209E-2,4.6336964E-2,-1.6889146E-2,5.916964E-2,2.9749513E-2,-1.7545829E-2,2.5911225E-2,-4.2659998E-2,4.839635E-3,-1.2918206E-2,4.110343E-2,1.6107056E-2,-1.9579738E-2,-5.810931E-2,-3.2647934E-2,-1.8373678E-2,1.9109514E-2,-1.4408353E-2,-3.2318857E-2],"split_indices":[19,5,58,44,11,7,11,5,14,52,31,26,19,4,4,12,15,47,30,0,23,15,54,57,29,55,57,0,29,15,13,0,0,0,0,0,0,0,0,0,0,0,0,0,0,0,0,0,0,0,0,0,0,0,0,0,0,0,0],"split_type":[0,0,0,0,0,0,0,0,0,0,0,0,0,0,0,0,0,0,0,0,0,0,0,0,0,0,0,0,0,0,0,0,0,0,0,0,0,0,0,0,0,0,0,0,0,0,0,0,0,0,0,0,0,0,0,0,0,0,0],"sum_hessian":[1.4446248E3,8.163584E2,6.282663E2,6.6959705E2,1.4676135E2,1.2699658E2,5.012697E2,1.5837708E2,5.1122E2,2.9894888E1,1.1686646E2,6.5142296E1,6.1854286E1,1.0183809E2,3.994316E2,4.3660988E1,1.1471609E2,1.2298122E2,3.8823877E2,9.140061E0,2.0754827E1,1.53707695E1,1.014957E2,3.7129456E1,2.801284E1,2.5672888E1,3.61814E1,5.5836515E0,9.625444E1,8.134658E1,3.1808505E2,7.471415E0,3.6189575E1,9.8050064E1,1.6666027E1,2.2659668E1,1.0032155E2,1.7084163E2,2.1739716E2,1.4321412E1,6.4334154E0,5.2141695E0,1.01566E1,7.41023E1,2.7393394E1,2.1575972E1,1.5553486E1,2.2569876E1,5.442965E0,7.488673E0,1.8184214E1,1.95543E1,1.6627098E1,2.7387487E1,6.886695E1,5.670151E1,2.4645067E1,1.5619409E2,1.6189095E2],"tree_param":{"num_deleted":"0","num_feature":"59","num_nodes":"59","size_leaf_vector":"1"}},{"base_weights":[-6.3003222E-3,-1.9743456E-1,5.262118E-1,-4.664005E-1,-4.634682E-2,3.990425E-1,1.016873E0,-2.7897856E-1,-6.2718606E-1,-1.7223303E-1,9.125224E-2,1.19048305E-1,5.5298525E-1,8.693701E-3,1.0792453E0,-6.475733E-1,-1.5670772E-1,-5.080782E-1,-1.0719682E0,8.181496E-2,-2.6825947E-1,-7.0735365E-2,2.9518738E-1,8.0265814E-1,1.6080702E-2,2.5975657E-1,7.3644966E-1,5.908969E-2,5.262118E-1,-3.8563028E-2,1.0189912E-2,9.4757247E-4,-2.332299E-2,-3.1885717E-2,-6.4614573E-3,-1.7693682E-2,-5.893494E-2,-2.3029443E-2,1.0076809E-2,-1.6446589E-2,7.955081E-3,-1.0684513E-2,1.1156505E-2,3.8019232E-3,3.149913E-2,5.0621666E-2,1.2982652E-2,-3.8834356E-2,6.3856505E-3,-6.9671534E-3,2.8006235E-2,-3.2872823E-3,4.124525E-2,4.5901176E-2,3.038961E-3],"categories":[],"categories_nodes":[],"categories_segments":[],"categories_sizes":[],"default_left":[1,1,0,0,0,0,0,1,0,0,0,0,0,0,0,0,0,0,0,0,0,0,0,0,0,0,0,0,0,0,0,0,0,0,0,0,0,0,0,0,0,0,0,0,0,0,0,0,0,0,0,0,0,0,0],"id":11,"left_children":[1,3,5,7,9,11,13,15,17,19,21,23,25,-1,27,29,31,33,35,37,39,41,43,45,47,49,51,-1,53,-1,-1,-1,-1,-1,-1,-1,-1,-1,-1,-1,-1,-1,-1,-1,-1,-1,-1,-1,-1,-1,-1,-1,-1,-1,-1],"loss_changes":[1.4744232E2,4.3251762E1,2.2657555E1,1.1018768E1,1.1927478E1,1.3113113E1,3.476204E0,7.910924E0,9.1618805E0,8.828956E0,1.0952489E1,7.9417453E0,1.0101234E1,0E0,2.1582184E0,5.1521378E0,7.689636E0,7.9271393E0,1.8405075E0,6.8262277E0,6.9343452E0,7.9625907E0,1.0605618E1,8.949537E-1,9.288615E0,9.944838E0,8.708061E0,0E0,2.8427534E0,0E0,0E0,0E0,0E0,0E0,0E0,0E0,0E0,0E0,0E0,0E0,0E0,0E0,0E0,0E0,0E0,0E0,0E0,0E0,0E0,0E0,0E0,0E0,0E0,0E0,0E0],"parents":[2147483647,0,0,1,1,2,2,3,3,4,4,5,5,6,6,7,7,8,8,9,9,10,10,11,11,12,12,14,14,15,15,16,16,17,17,18,18,19,19,20,20,21,21,22,22,23,23,24,24,25,25,26,26,28,28],"right_children":[2,4,6,8,10,12,14,16,18,20,22,24,26,-1,28,30,32,34,36,38,40,42,44,46,48,50,52,-1,54,-1,-1,-1,-1,-1,-1,-1,-1,-1,-1,-1,-1,-1,-1,-1,-1,-1,-1,-1,-1,-1,-1,-1,-1,-1,-1],"split_conditions":[7E2,-5.39E2,5.032E3,4.7E1,2.51E1,2.32E1,5.5E-1,5.826087E-1,6.923077E-1,5E0,5.7575756E-1,-1.12E2,6.521739E-2,8.693701E-3,2.9E1,8.7096775E-1,6E-1,5.862069E-1,4.375E-1,2.9239766E-2,8.503185E-1,2.3076923E-1,8.1E1,7.515152E-2,4.117647E-1,1E0,5E0,5.908969E-2,4E0,-3.8563028E-2,1.0189912E-2,9.4757247E-4,-2.332299E-2,-3.1885717E-2,-6.4614573E-3,-1.7693682E-2,-5.893494E-2,-2.3029443E-2,1.0076809E-2,-1.6446589E-2,7.955081E-3,-1.0684513E-2,1.1156505E-2,3.8019232E-3,3.149913E-2,5.0621666E-2,1.2982652E-2,-3.8834356E-2,6.3856505E-3,-6.9671534E-3,2.8006235E-2,-3.2872823E-3,4.124525E-2,4.5901176E-2,3.038961E-3],"split_indices":[20,20,20,19,14,14,31,41,44,50,31,19,36,0,50,57,47,32,47,36,57,43,11,36,31,48,4,0,2,0,0,0,0,0,0,0,0,0,0,0,0,0,0,0,0,0,0,0,0,0,0,0,0,0,0],"split_type":[0,0,0,0,0,0,0,0,0,0,0,0,0,0,0,0,0,0,0,0,0,0,0,0,0,0,0,0,0,0,0,0,0,0,0,0,0,0,0,0,0,0,0,0,0,0,0,0,0,0,0,0,0,0,0],"sum_hessian":[1.4425566E3,1.0629282E3,3.7962842E2,3.8006924E2,6.8285895E2,3.0580887E2,7.381956E1,1.792866E2,2.0078264E2,3.562129E2,3.266461E2,1.10375565E2,1.954333E2,5.868351E0,6.795121E1,4.1448456E1,1.3783815E2,1.6344165E2,3.734099E1,9.783201E1,2.583809E2,1.831376E2,1.4350847E2,1.1780195E1,9.859537E1,7.800557E1,1.1742773E2,5.4444782E1,1.3506426E1,3.6437153E1,5.0113015E0,8.975494E1,4.808321E1,1.2024562E2,4.3196026E1,6.507119E0,3.083387E1,1.6144932E1,8.168707E1,2.2686401E2,3.151686E1,1.2375417E2,5.9383427E1,8.8959236E1,5.454924E1,6.6266637E0,5.153531E0,9.963802E0,8.863156E1,3.4188087E1,4.3817482E1,1.1738869E1,1.0568886E2,5.749304E0,7.757122E0],"tree_param":{"num_deleted":"0","num_feature":"59","num_nodes":"55","size_leaf_vector":"1"}},{"base_weights":[-1.31715E-2,-2.0823038E-1,5.249334E-1,-3.893987E-1,2.9837018E-2,4.0899816E-1,9.550329E-1,-6.7402786E-1,-2.9120028E-1,2.525315E-1,-9.486179E-2,4.3807E-1,-3.5011053E-2,1.0202595E0,9.578471E-3,-7.7468306E-1,-4.4656213E-2,4.4433277E-2,-3.143503E-1,1.3496658E-1,7.916748E-1,8.034867E-2,-3.086795E-1,5.3679353E-1,4.8172664E-2,1.0898559E0,5.4671043E-1,-4.921643E-2,-3.0093009E-2,2.559664E-2,-3.0709961E-2,1.4367225E-2,-1.7421601E-2,-1.674658E-2,1.1662207E-2,1.5068211E-3,4.7650576E-2,4.0365875E-2,-3.2658845E-3,-8.414529E-3,-4.5254257E-2,1.6816698E-2,3.559535E-2,-2.1251107E-2,2.408533E-2,1.901108E-2,5.670156E-2,4.2880457E-2,1.0240981E-3],"categories":[],"categories_nodes":[],"categories_segments":[],"categories_sizes":[],"default_left":[1,0,0,0,0,0,0,0,0,0,0,0,0,0,0,0,0,0,0,0,1,0,1,0,0,0,0,0,0,0,0,0,0,0,0,0,0,0,0,0,0,0,0,0,0,0,0,0,0],"id":12,"left_children":[1,3,5,7,9,11,13,15,17,19,21,23,-1,25,-1,27,29,-1,31,33,35,37,39,41,43,45,47,-1,-1,-1,-1,-1,-1,-1,-1,-1,-1,-1,-1,-1,-1,-1,-1,-1,-1,-1,-1,-1,-1],"loss_changes":[1.5294205E2,4.6154232E1,1.8159737E1,1.6388893E1,1.2981326E1,1.0936821E1,3.400856E0,9.622177E0,1.3317806E1,1.0308291E1,1.1320315E1,1.1644512E1,0E0,6.207504E-1,0E0,3.0116882E0,8.662852E0,0E0,9.535065E0,6.7589865E0,3.5264568E0,1.7881699E1,1.0914878E1,7.801483E0,1.3912829E1,6.089554E-1,2.4639916E0,0E0,0E0,0E0,0E0,0E0,0E0,0E0,0E0,0E0,0E0,0E0,0E0,0E0,0E0,0E0,0E0,0E0,0E0,0E0,0E0,0E0,0E0],"parents":[2147483647,0,0,1,1,2,2,3,3,4,4,5,5,6,6,7,7,8,8,9,9,10,10,11,11,13,13,15,15,16,16,18,18,19,19,20,20,21,21,22,22,23,23,24,24,25,25,26,26],"right_children":[2,4,6,8,10,12,14,16,18,20,22,24,-1,26,-1,28,30,-1,32,34,36,38,40,42,44,46,48,-1,-1,-1,-1,-1,-1,-1,-1,-1,-1,-1,-1,-1,-1,-1,-1,-1,-1,-1,-1,-1,-1],"split_conditions":[7E2,-1.35E2,4.66E3,-1.729E3,3.846154E-1,4.325E3,1E0,6.530612E-1,-1.67E3,5.945946E-1,6.248295E-1,2.5050506E-1,-3.5011053E-2,6.5E-1,9.578471E-3,6.967593E-1,1E0,4.4433277E-2,-5.6E1,2.4898669E-2,6.245353E-1,6.8421054E-1,4.65E2,8.094768E-2,1.38E3,8.059072E-1,2.966466E-2,-4.921643E-2,-3.0093009E-2,2.559664E-2,-3.0709961E-2,1.4367225E-2,-1.7421601E-2,-1.674658E-2,1.1662207E-2,1.5068211E-3,4.7650576E-2,4.0365875E-2,-3.2658845E-3,-8.414529E-3,-4.5254257E-2,1.6816698E-2,3.559535E-2,-2.1251107E-2,2.408533E-2,1.901108E-2,5.670156E-2,4.2880457E-2,1.0240981E-3],"split_indices":[20,20,20,20,46,20,16,29,20,30,53,58,0,45,0,39,33,0,33,37,54,54,20,36,20,42,37,0,0,0,0,0,0,0,0,0,0,0,0,0,0,0,0,0,0,0,0,0,0],"split_type":[0,0,0,0,0,0,0,0,0,0,0,0,0,0,0,0,0,0,0,0,0,0,0,0,0,0,0,0,0,0,0,0,0,0,0,0,0,0,0,0,0,0,0,0,0,0,0,0,0],"sum_hessian":[1.4509922E3,1.0663042E3,3.84688E2,6.0442914E2,4.618751E2,3.0762036E2,7.706761E1,1.5052858E2,4.5390054E2,1.6468878E2,2.971863E2,3.0153262E2,6.0877614E0,7.0071945E1,6.9956713E0,1.2917674E2,2.1351837E1,6.5761905E0,4.4732437E2,1.3828545E2,2.6403345E1,1.6436884E2,1.3281749E2,2.3970746E2,6.1825157E1,5.7689117E1,1.2382828E1,5.2004753E1,7.717198E1,1.0952197E1,1.039964E1,2.2784414E1,4.2453995E2,2.2669731E1,1.1561571E2,5.238249E0,2.1165094E1,2.5162928E1,1.392059E2,1.1062403E2,2.2193453E1,1.15850525E2,1.23856926E2,2.9588606E1,3.2236553E1,5.069751E0,5.2619366E1,6.5964346E0,5.7863927E0],"tree_param":{"num_deleted":"0","num_feature":"59","num_nodes":"49","size_leaf_vector":"1"}},{"base_weights":[1.04137715E-2,-1.6825277E-1,5.0890076E-1,-4.408362E-1,-2.6228908E-2,3.904278E-1,9.132634E-1,-4.9358034E-1,1.0103857E-1,-1.9286036E-1,9.395902E-2,-7.306831E-2,5.013298E-1,-6.6341966E-4,9.857391E-1,-3.5221556E-1,-6.7980397E-1,3.7618745E-2,-1.914722E-1,6.1674263E-2,-3.2407042E-1,3.1358832E-1,-4.5663577E-2,3.814326E-2,-2.3439479E-1,5.854679E-1,1.2526713E-1,5.388372E-2,5.959004E-3,-1.9496884E-2,3.2568756E-2,1.1312274E-2,-3.630039E-2,-3.4331594E-2,1.5913604E-2,-1.4053888E-2,2.2339322E-2,1.2103527E-2,-1.991306E-2,2.2218065E-2,-4.3086014E-3,2.0443087E-2,-7.5807036E-3,-4.0884364E-2,7.839817E-3,1.2206574E-2,3.4779254E-2,-1.1717976E-2,2.181512E-2],"categories":[],"categories_nodes":[],"categories_segments":[],"categories_sizes":[],"default_left":[1,1,0,0,0,0,0,0,0,0,0,0,0,0,0,1,0,0,0,0,0,1,0,0,0,0,0,0,0,0,0,0,0,0,0,0,0,0,0,0,0,0,0,0,0,0,0,0,0],"id":13,"left_children":[1,3,5,7,9,11,13,15,17,19,21,23,25,-1,27,29,31,-1,33,35,37,39,41,-1,43,45,47,-1,-1,-1,-1,-1,-1,-1,-1,-1,-1,-1,-1,-1,-1,-1,-1,-1,-1,-1,-1,-1,-1],"loss_changes":[1.2931451E2,4.134917E1,1.7282127E1,1.0609886E1,1.4193317E1,1.5608555E1,5.717819E0,8.075333E0,7.0918016E0,9.972988E0,1.2682308E1,8.740317E0,7.4903564E0,0E0,5.8661346E0,8.186392E0,6.392151E0,0E0,7.347621E0,1.403625E1,8.535837E0,8.5092E0,1.2446831E1,0E0,1.2543661E1,6.9445343E0,5.717108E0,0E0,0E0,0E0,0E0,0E0,0E0,0E0,0E0,0E0,0E0,0E0,0E0,0E0,0E0,0E0,0E0,0E0,0E0,0E0,0E0,0E0,0E0],"parents":[2147483647,0,0,1,1,2,2,3,3,4,4,5,5,6,6,7,7,8,8,9,9,10,10,11,11,12,12,14,14,15,15,16,16,18,18,19,19,20,20,21,21,22,22,24,24,25,25,26,26],"right_children":[2,4,6,8,10,12,14,16,18,20,22,24,26,-1,28,30,32,-1,34,36,38,40,42,-1,44,46,48,-1,-1,-1,-1,-1,-1,-1,-1,-1,-1,-1,-1,-1,-1,-1,-1,-1,-1,-1,-1,-1,-1],"split_conditions":[7E2,-5.85E2,4.66E3,7.380952E-1,2.39E1,2.16E1,5.294118E-1,4E0,6.111111E-1,6.0038E-1,4.2424244E-1,-1.12E2,2.5050506E-1,-6.6341966E-4,1E0,2.1E1,8E0,3.7618745E-2,4.685E3,5.8563536E-1,5.3061223E-1,6.5094864E-1,3.846154E-1,3.814326E-2,5.6E-1,7.816092E-1,1.38E3,5.388372E-2,5.959004E-3,-1.9496884E-2,3.2568756E-2,1.1312274E-2,-3.630039E-2,-3.4331594E-2,1.5913604E-2,-1.4053888E-2,2.2339322E-2,1.2103527E-2,-1.991306E-2,2.2218065E-2,-4.3086014E-3,2.0443087E-2,-7.5807036E-3,-4.0884364E-2,7.839817E-3,1.2206574E-2,3.4779254E-2,-1.1717976E-2,2.181512E-2],"split_indices":[20,20,20,22,14,14,31,33,44,53,44,19,58,0,16,6,19,0,12,53,56,53,46,0,31,42,20,0,0,0,0,0,0,0,0,0,0,0,0,0,0,0,0,0,0,0,0,0,0],"split_type":[0,0,0,0,0,0,0,0,0,0,0,0,0,0,0,0,0,0,0,0,0,0,0,0,0,0,0,0,0,0,0,0,0,0,0,0,0,0,0,0,0,0,0,0,0,0,0,0,0],"sum_hessian":[1.4460612E3,1.0659818E3,3.8007928E2,3.6299026E2,7.029916E2,2.9851492E2,8.156436E1,3.310358E2,3.1954466E1,2.9381937E2,4.091722E2,5.7833405E1,2.406815E2,6.095108E0,7.546925E1,1.9311432E2,1.379215E2,8.441445E0,2.3513021E1,1.0048269E2,1.9333665E2,1.575713E2,2.516009E2,7.54612E0,5.0287285E1,1.9531284E2,4.5368668E1,6.756974E1,7.8995123E0,1.8788657E2,5.2277446E0,6.124819E0,1.3179668E2,1.1399065E1,1.21139555E1,5.359408E1,4.688861E1,2.1614037E1,1.7172263E2,1.18478806E2,3.9092503E1,4.5940445E1,2.0566046E2,1.8874048E1,3.1413239E1,4.9994175E1,1.4531866E2,2.1383772E1,2.3984896E1],"tree_param":{"num_deleted":"0","num_feature":"59","num_nodes":"49","size_leaf_vector":"1"}},{"base_weights":[1.5870003E-2,-1.2835799E-1,5.392705E-1,-3.1584418E-1,6.967383E-2,3.951357E-1,8.664082E-1,-1.500093E-1,-4.419047E-1,1.4949107E-1,-2.2303154E-1,7.136554E-1,2.2049728E-1,1.3694635E-1,9.9510777E-1,1.6894877E-1,-2.4489503E-1,-5.1129574E-1,-5.975305E-2,1.74157E-1,-3.4386333E-2,1.1591339E-2,-3.7207296E-1,3.5768917E-1,9.3357706E-1,-2.3284033E-1,2.9095057E-1,-2.3097312E-2,3.349142E-2,4.525206E-1,1.0877942E0,3.0411327E-2,-1.7072368E-2,1.32757295E-2,-1.6084513E-2,-7.5870226E-3,-3.0938795E-2,1.7102754E-2,-1.8207597E-2,2.2341063E-2,3.4679135E-3,1.7628355E-2,-1.2024924E-2,-2.9205516E-2,5.4241214E-3,-4.865918E-3,3.458038E-2,4.3452074E-4,5.263282E-2,1.6647866E-2,-5.381772E-2,1.6744127E-2,-2.136322E-2,-8.316211E-3,4.040591E-2,5.647744E-2,1.8787626E-2],"categories":[],"categories_nodes":[],"categories_segments":[],"categories_sizes":[],"default_left":[1,1,0,1,1,1,0,1,0,0,0,0,0,0,0,0,0,0,0,0,0,0,0,0,0,0,0,0,0,0,1,0,0,0,0,0,0,0,0,0,0,0,0,0,0,0,0,0,0,0,0,0,0,0,0,0,0],"id":14,"left_children":[1,3,5,7,9,11,13,15,17,19,21,23,25,27,29,31,33,35,37,39,-1,41,43,45,47,49,51,-1,-1,53,55,-1,-1,-1,-1,-1,-1,-1,-1,-1,-1,-1,-1,-1,-1,-1,-1,-1,-1,-1,-1,-1,-1,-1,-1,-1,-1],"loss_changes":[1.0977981E2,4.2405334E1,1.3785469E1,1.2058205E1,1.311406E1,1.1964802E1,8.375008E0,7.9249167E0,8.700691E0,9.434951E0,4.2285914E0,5.091404E0,4.9540973E0,6.5165663E0,2.4988403E0,1.4271042E1,8.090963E0,1.0547157E1,7.0212307E0,1.2174177E1,0E0,4.529973E0,7.711447E0,5.4568653E0,5.065979E0,1.141919E1,4.5334063E0,0E0,0E0,4.0717893E0,6.70578E-1,0E0,0E0,0E0,0E0,0E0,0E0,0E0,0E0,0E0,0E0,0E0,0E0,0E0,0E0,0E0,0E0,0E0,0E0,0E0,0E0,0E0,0E0,0E0,0E0,0E0,0E0],"parents":[2147483647,0,0,1,1,2,2,3,3,4,4,5,5,6,6,7,7,8,8,9,9,10,10,11,11,12,12,13,13,14,14,15,15,16,16,17,17,18,18,19,19,21,21,22,22,23,23,24,24,25,25,26,26,29,29,30,30],"right_children":[2,4,6,8,10,12,14,16,18,20,22,24,26,28,30,32,34,36,38,40,-1,42,44,46,48,50,52,-1,-1,54,56,-1,-1,-1,-1,-1,-1,-1,-1,-1,-1,-1,-1,-1,-1,-1,-1,-1,-1,-1,-1,-1,-1,-1,-1,-1,-1],"split_conditions":[9.52E2,-1.52E2,7.5757575E-1,2.1198156E-1,1.93E2,1.85E2,1.2E1,5.8870965E-1,4.8E1,3.72E1,9.83E2,6.851972E-2,5.365854E-1,7E0,2.49E1,0E0,2.48E1,3.5E1,2.98E1,1.6839378E-1,-3.4386333E-2,8.9E1,2.2E1,3.0513177E-2,4.893617E-1,-4E1,3.57E1,-2.3097312E-2,3.349142E-2,4.1E1,7E0,3.0411327E-2,-1.7072368E-2,1.32757295E-2,-1.6084513E-2,-7.5870226E-3,-3.0938795E-2,1.7102754E-2,-1.8207597E-2,2.2341063E-2,3.4679135E-3,1.7628355E-2,-1.2024924E-2,-2.9205516E-2,5.4241214E-3,-4.865918E-3,3.458038E-2,4.3452074E-4,5.263282E-2,1.6647866E-2,-5.381772E-2,1.6744127E-2,-2.136322E-2,-8.316211E-3,4.040591E-2,5.647744E-2,1.8787626E-2],"split_indices":[20,20,30,58,15,15,11,56,11,7,5,36,56,26,7,33,7,4,7,58,0,11,50,52,56,19,7,0,0,11,6,0,0,0,0,0,0,0,0,0,0,0,0,0,0,0,0,0,0,0,0,0,0,0,0,0,0],"split_type":[0,0,0,0,0,0,0,0,0,0,0,0,0,0,0,0,0,0,0,0,0,0,0,0,0,0,0,0,0,0,0,0,0,0,0,0,0,0,0,0,0,0,0,0,0,0,0,0,0,0,0,0,0,0,0,0,0],"sum_hessian":[1.448498E3,1.1373538E3,3.1114435E2,5.833159E2,5.540378E2,2.2058124E2,9.056312E1,2.5475333E2,3.285626E2,4.3648218E2,1.1755561E2,7.483383E1,1.457474E2,1.4510522E1,7.60526E1,5.787272E1,1.9688062E2,2.7721255E2,5.135004E1,4.262986E2,1.0183571E1,4.67414E1,7.081421E1,3.1586727E1,4.3247105E1,1.8673908E1,1.27073494E2,7.020129E0,7.490392E0,1.367075E1,6.2381847E1,3.0794277E1,2.7078442E1,2.4784077E1,1.7209654E2,6.546079E1,2.1175175E2,2.1973623E1,2.9376417E1,1.156391E2,3.1065952E2,1.9359747E1,2.7381655E1,4.868588E1,2.212833E1,1.4269007E1,1.731772E1,5.3001237E0,3.794698E1,1.2263699E1,6.410209E0,1.2125757E2,5.815927E0,5.5714993E0,8.09925E0,5.7264748E1,5.1171002E0],"tree_param":{"num_deleted":"0","num_feature":"59","num_nodes":"57","size_leaf_vector":"1"}},{"base_weights":[6.288447E-3,2.5740072E-1,-3.034884E-1,9.781067E-2,6.0153306E-1,-1.4686127E-1,-4.9572238E-1,1.5291266E-1,-3.2449073E-1,4.790589E-1,9.1140443E-1,-4.043968E-1,-2.4053214E-2,-3.1547648E-1,-6.3064253E-1,-1.5013199E-1,2.2304165E-1,1.9643355E-2,-4.5876253E-1,6.0724694E-1,1.06252104E-1,9.963098E-1,3.5452277E-3,-1.7951773E-1,-6.963954E-1,1.0330725E0,-1.02475345E-1,-1.7502697E-1,-6.2920225E-1,-6.722267E-1,4.276896E-3,3.5058286E-2,-1.2292043E-2,-2.4613656E-2,1.3045981E-2,-2.9743014E-2,2.0591628E-2,3.3396784E-2,-1.3131333E-2,1.2496167E-2,-3.5639323E-2,5.2666962E-2,1.593878E-2,3.0380522E-3,-2.9140228E-2,-4.5731716E-2,-6.157582E-3,1.6626304E-2,6.2322833E-2,2.9871315E-3,-1.9861598E-2,1.928107E-2,-1.3857904E-2,-2.0731995E-3,-3.986247E-2,4.5991745E-3,-3.5448965E-2],"categories":[],"categories_nodes":[],"categories_segments":[],"categories_sizes":[],"default_left":[0,0,0,0,0,0,0,0,0,1,0,0,0,0,0,0,0,0,0,1,0,0,0,0,0,0,0,0,0,0,0,0,0,0,0,0,0,0,0,0,0,0,0,0,0,0,0,0,0,0,0,0,0,0,0,0,0],"id":15,"left_children":[1,3,5,7,9,11,13,15,17,19,21,23,25,27,29,31,33,-1,35,37,39,41,-1,43,45,47,49,51,53,55,-1,-1,-1,-1,-1,-1,-1,-1,-1,-1,-1,-1,-1,-1,-1,-1,-1,-1,-1,-1,-1,-1,-1,-1,-1,-1,-1],"loss_changes":[1.1150995E2,4.33023E1,1.9105888E1,1.28177185E1,8.186935E0,1.1290957E1,6.379936E0,1.0378819E1,6.6859674E0,8.679691E0,4.609539E0,7.201212E0,2.0673607E1,5.345667E0,4.9694824E0,8.068476E0,1.1059439E1,0E0,7.2664785E0,7.7866783E0,6.5526733E0,1.3548355E0,0E0,6.813981E0,5.8117027E0,1.3319225E0,1.1131469E1,5.6536922E0,3.7211237E0,4.480835E0,0E0,0E0,0E0,0E0,0E0,0E0,0E0,0E0,0E0,0E0,0E0,0E0,0E0,0E0,0E0,0E0,0E0,0E0,0E0,0E0,0E0,0E0,0E0,0E0,0E0,0E0,0E0],"parents":[2147483647,0,0,1,1,2,2,3,3,4,4,5,5,6,6,7,7,8,8,9,9,10,10,11,11,12,12,13,13,14,14,15,15,16,16,18,18,19,19,20,20,21,21,23,23,24,24,25,25,26,26,27,27,28,28,29,29],"right_children":[2,4,6,8,10,12,14,16,18,20,22,24,26,28,30,32,34,-1,36,38,40,42,-1,44,46,48,50,52,54,56,-1,-1,-1,-1,-1,-1,-1,-1,-1,-1,-1,-1,-1,-1,-1,-1,-1,-1,-1,-1,-1,-1,-1,-1,-1,-1,-1],"split_conditions":[6E0,1.217E3,5.7894737E-1,3E1,5.245E3,6.8041235E-1,3E0,3.5E-1,5.767635E-1,1.93E2,1E0,1.4E1,-5.2E1,6.1E1,5.644516E-1,-1.17E2,-3.8E1,1.9643355E-2,8.7323946E-1,3.127572E-1,1.4250973E-1,1.2760882E-1,3.5452277E-3,6.715328E-2,4E0,5.8483034E-1,4.7E1,4.5454547E-2,6.71875E-1,3.75E-1,4.276896E-3,3.5058286E-2,-1.2292043E-2,-2.4613656E-2,1.3045981E-2,-2.9743014E-2,2.0591628E-2,3.3396784E-2,-1.3131333E-2,1.2496167E-2,-3.5639323E-2,5.2666962E-2,1.593878E-2,3.0380522E-3,-2.9140228E-2,-4.5731716E-2,-6.157582E-3,1.6626304E-2,6.2322833E-2,2.9871315E-3,-1.9861598E-2,1.928107E-2,-1.3857904E-2,-2.0731995E-3,-3.986247E-2,4.5991745E-3,-3.5448965E-2],"split_indices":[19,20,45,50,20,39,26,31,56,15,16,50,33,48,40,19,48,0,57,58,36,51,0,51,2,38,19,51,39,46,0,0,0,0,0,0,0,0,0,0,0,0,0,0,0,0,0,0,0,0,0,0,0,0,0,0,0],"split_type":[0,0,0,0,0,0,0,0,0,0,0,0,0,0,0,0,0,0,0,0,0,0,0,0,0,0,0,0,0,0,0,0,0,0,0,0,0,0,0,0,0,0,0,0,0,0,0,0,0,0,0,0,0,0,0,0,0],"sum_hessian":[1.427484E3,7.8867395E2,6.388101E2,5.414372E2,2.4723674E2,3.5492145E2,2.8388864E2,4.8063724E2,6.0799946E1,1.826742E2,6.4562546E1,1.1237852E2,2.4254295E2,1.2581774E2,1.5807089E2,8.968104E1,3.909562E2,8.675052E0,5.2124893E1,1.3453004E2,4.8144142E1,5.8133858E1,6.4286857E0,6.622248E1,4.6156036E1,1.4228184E1,2.2831476E2,9.013816E1,3.5679577E1,1.4957037E2,8.500518E0,7.14557E0,8.253547E1,1.7851254E1,3.7310495E2,4.589968E1,6.225211E0,1.2640739E2,8.122663E0,4.273277E1,5.4113736E0,5.2085705E1,6.0481524E0,4.3094643E1,2.3127834E1,3.2135246E1,1.402079E1,5.113953E0,9.11423E0,1.4880986E2,7.95049E1,1.2606666E1,7.7531494E1,8.764903E0,2.6914675E1,6.656233E0,1.4291414E2],"tree_param":{"num_deleted":"0","num_feature":"59","num_nodes":"57","size_leaf_vector":"1"}},{"base_weights":[-2.1867463E-4,1.9574665E-1,-3.1563634E-1,-4.9352E-3,3.6926457E-1,-1.6052033E-1,-5.391502E-1,6.9236535E-1,-3.939892E-2,2.6226178E-1,6.2869227E-1,2.0969692E-1,-2.263245E-1,1.3328798E-1,-5.9104955E-1,4.8939183E-2,-3.451185E-3,-2.958565E-1,4.9966708E-2,3.421039E-1,-1.3429654E-1,7.395691E-1,9.376597E-2,-2.8760743E-1,4.0205726E-1,1.830697E-1,-2.9912558E-1,3.2777537E-2,-2.2655899E-2,-6.53237E-1,-6.734173E-2,-1.3943651E-3,-2.7522404E-2,1.242153E-2,-6.155513E-3,-2.0389568E-2,1.9516794E-2,2.165408E-2,-2.1248845E-2,2.8350731E-2,5.1081907E-2,-1.1372455E-2,2.8923182E-2,8.124168E-3,-2.7426261E-2,2.8959388E-2,-1.6745051E-2,2.3205196E-2,-2.7115736E-2,-1.2896127E-3,-2.0686181E-2,-3.433628E-2,1.9523109E-3,3.242019E-2,-1.977498E-2],"categories":[],"categories_nodes":[],"categories_segments":[],"categories_sizes":[],"default_left":[1,0,0,0,0,0,0,0,0,1,0,1,1,0,0,0,0,0,0,0,0,0,0,0,0,1,0,0,0,1,0,0,0,0,0,0,0,0,0,0,0,0,0,0,0,0,0,0,0,0,0,0,0,0,0],"id":16,"left_children":[1,3,5,7,9,11,13,15,17,19,21,23,25,27,29,-1,-1,31,33,35,37,39,41,43,45,47,49,-1,-1,51,53,-1,-1,-1,-1,-1,-1,-1,-1,-1,-1,-1,-1,-1,-1,-1,-1,-1,-1,-1,-1,-1,-1,-1,-1],"loss_changes":[8.860753E1,3.0794674E1,1.8786144E1,1.0005994E1,1.266967E1,8.146635E0,8.046013E0,4.479307E0,9.128153E0,1.0931223E1,7.8780594E0,5.2393184E0,8.521846E0,6.5513415E0,6.65184E0,0E0,0E0,6.9711027E0,1.0276251E1,1.0771481E1,1.0329973E1,3.737362E0,4.5738845E0,2.1479669E0,5.559221E0,9.765085E0,7.4610844E0,0E0,0E0,4.388954E0,6.7478037E0,0E0,0E0,0E0,0E0,0E0,0E0,0E0,0E0,0E0,0E0,0E0,0E0,0E0,0E0,0E0,0E0,0E0,0E0,0E0,0E0,0E0,0E0,0E0,0E0],"parents":[2147483647,0,0,1,1,2,2,3,3,4,4,5,5,6,6,7,7,8,8,9,9,10,10,11,11,12,12,13,13,14,14,17,17,18,18,19,19,20,20,21,21,22,22,23,23,24,24,25,25,26,26,29,29,30,30],"right_children":[2,4,6,8,10,12,14,16,18,20,22,24,26,28,30,-1,-1,32,34,36,38,40,42,44,46,48,50,-1,-1,52,54,-1,-1,-1,-1,-1,-1,-1,-1,-1,-1,-1,-1,-1,-1,-1,-1,-1,-1,-1,-1,-1,-1,-1,-1],"split_conditions":[1.3E1,7.972973E-1,6.060606E-1,-1.49E2,4.095E3,4.375E-1,1.008E3,3E0,4.716495E-1,2.5050506E-1,3.75E3,4.7082767E-1,1.3580246E-1,3.7656903E-2,7.647059E-1,4.8939183E-2,-3.451185E-3,3.07E1,6.060606E-1,4E-1,1E1,9E0,1.3E1,9.64E2,7.4788135E-1,5.4330707E-1,7E1,3.2777537E-2,-2.2655899E-2,2E1,8.181818E-1,-1.3943651E-3,-2.7522404E-2,1.242153E-2,-6.155513E-3,-2.0389568E-2,1.9516794E-2,2.165408E-2,-2.1248845E-2,2.8350731E-2,5.1081907E-2,-1.1372455E-2,2.8923182E-2,8.124168E-3,-2.7426261E-2,2.8959388E-2,-1.6745051E-2,2.3205196E-2,-2.7115736E-2,-1.2896127E-3,-2.0686181E-2,-3.433628E-2,1.9523109E-3,3.242019E-2,-1.977498E-2],"split_indices":[19,42,44,19,5,25,12,50,40,58,12,40,58,37,32,0,0,7,56,30,50,23,23,12,39,55,4,0,0,6,32,0,0,0,0,0,0,0,0,0,0,0,0,0,0,0,0,0,0,0,0,0,0,0,0],"split_type":[0,0,0,0,0,0,0,0,0,0,0,0,0,0,0,0,0,0,0,0,0,0,0,0,0,0,0,0,0,0,0,0,0,0,0,0,0,0,0,0,0,0,0,0,0,0,0,0,0,0,0,0,0,0,0],"sum_hessian":[1.4275266E3,8.8119104E2,5.463355E2,4.0996335E2,4.7122772E2,3.2555716E2,2.2077837E2,1.6610754E1,3.933526E2,3.3789377E2,1.3333394E2,4.8142906E1,2.7741425E2,1.5481858E1,2.0529651E2,1.1447776E1,5.162979E0,9.98566E1,2.93496E2,2.8160754E2,5.6286247E1,1.0949141E2,2.3842524E1,1.3013636E1,3.512927E1,4.119753E1,2.3621672E2,8.001687E0,7.480171E0,1.8284293E2,2.2453579E1,5.0271828E1,4.9584774E1,1.3611246E2,1.5738354E2,1.5666445E1,2.659411E2,1.8569948E1,3.7716297E1,7.353641E1,3.5955E1,1.5297141E1,8.545382E0,5.190924E0,7.822711E0,2.8839779E1,6.2894897E0,3.0472298E1,1.0725233E1,7.086599E1,1.6535072E2,1.7442915E2,8.413779E0,6.1380982E0,1.631548E1],"tree_param":{"num_deleted":"0","num_feature":"59","num_nodes":"55","size_leaf_vector":"1"}},{"base_weights":[1.2909498E-2,-1.1773331E-1,4.8873004E-1,6.0475014E-2,-2.90529E-1,3.6076272E-1,9.3134904E-1,-2.0602123E-1,1.2640464E-1,-5.8821386E-1,-2.0416743E-1,-2.2924922E-1,4.6565586E-1,7.1463805E-1,5.8924306E-2,2.33225E-2,-6.8243E-1,3.721688E-1,5.2909134E-3,1.4971575E-1,-6.6273266E-1,-4.853514E-1,-1.2294288E-1,-4.2939167E-2,3.7038545E-3,2.2820432E-1,6.732936E-1,8.996239E-1,2.5190535E-1,-4.746691E-3,3.484865E-2,-4.5775283E-2,2.2958645E-3,2.275124E-2,-2.4114607E-2,-2.3706306E-2,4.418045E-3,-1.201264E-2,2.573379E-2,-3.5419684E-2,2.5899836E-3,-1.3404622E-2,-4.3229274E-2,-4.249756E-2,-4.2588324E-3,3.579907E-2,-1.679147E-2,-3.2981653E-2,1.5962573E-2,3.7166387E-2,-2.5292337E-3,5.3817213E-2,1.1731668E-2,3.1061208E-2,-1.3451244E-2],"categories":[],"categories_nodes":[],"categories_segments":[],"categories_sizes":[],"default_left":[1,1,0,0,0,0,0,0,0,0,0,0,1,0,0,0,1,0,0,0,1,0,0,0,0,0,0,0,0,0,0,0,0,0,0,0,0,0,0,0,0,0,0,0,0,0,0,0,0,0,0,0,0,0,0],"id":17,"left_children":[1,3,5,7,9,11,13,15,17,19,21,23,25,27,-1,29,31,33,35,37,39,41,43,-1,45,47,49,51,53,-1,-1,-1,-1,-1,-1,-1,-1,-1,-1,-1,-1,-1,-1,-1,-1,-1,-1,-1,-1,-1,-1,-1,-1,-1,-1],"loss_changes":[8.8147896E1,3.4319702E1,1.6293E1,9.746907E0,1.4177738E1,1.5287504E1,1.0407562E0,1.2097223E1,1.318075E1,7.2026825E0,9.936968E0,5.6579275E0,9.711819E0,3.010353E0,0E0,6.3600435E0,6.226692E0,1.1009361E1,1.2065788E1,2.3584328E0,3.8492012E0,7.3998528E0,9.32863E0,0E0,8.242592E0,8.77927E0,5.615162E0,2.7245827E0,3.6717405E0,0E0,0E0,0E0,0E0,0E0,0E0,0E0,0E0,0E0,0E0,0E0,0E0,0E0,0E0,0E0,0E0,0E0,0E0,0E0,0E0,0E0,0E0,0E0,0E0,0E0,0E0],"parents":[2147483647,0,0,1,1,2,2,3,3,4,4,5,5,6,6,7,7,8,8,9,9,10,10,11,11,12,12,13,13,15,15,16,16,17,17,18,18,19,19,20,20,21,21,22,22,24,24,25,25,26,26,27,27,28,28],"right_children":[2,4,6,8,10,12,14,16,18,20,22,24,26,28,-1,30,32,34,36,38,40,42,44,-1,46,48,50,52,54,-1,-1,-1,-1,-1,-1,-1,-1,-1,-1,-1,-1,-1,-1,-1,-1,-1,-1,-1,-1,-1,-1,-1,-1,-1,-1],"split_conditions":[9.52E2,1.06E3,5.245E3,1.4705883E-1,-1.952E3,2.11E1,5E0,5.1744884E-1,1.6839378E-1,9E0,4.7349823E-1,7.083333E-1,5E0,7.4222666E-1,5.8924306E-2,7.5E-1,2.1621622E-1,1.7417322E-1,5.6953645E-1,5.125858E-1,2E1,3.7E1,1.97E1,-4.2939167E-2,4.9468598E-1,5.7894737E-1,7.80083E-1,1.775E3,3.5E1,-4.746691E-3,3.484865E-2,-4.5775283E-2,2.2958645E-3,2.275124E-2,-2.4114607E-2,-2.3706306E-2,4.418045E-3,-1.201264E-2,2.573379E-2,-3.5419684E-2,2.5899836E-3,-1.3404622E-2,-4.3229274E-2,-4.249756E-2,-4.2588324E-3,3.579907E-2,-1.679147E-2,-3.2981653E-2,1.5962573E-2,3.7166387E-2,-2.5292337E-3,5.3817213E-2,1.1731668E-2,3.1061208E-2,-1.3451244E-2],"split_indices":[20,12,20,43,20,14,3,55,58,6,40,39,6,54,0,54,58,51,38,40,6,11,14,0,55,38,54,12,11,0,0,0,0,0,0,0,0,0,0,0,0,0,0,0,0,0,0,0,0,0,0,0,0,0,0],"split_type":[0,0,0,0,0,0,0,0,0,0,0,0,0,0,0,0,0,0,0,0,0,0,0,0,0,0,0,0,0,0,0,0,0,0,0,0,0,0,0,0,0,0,0,0,0,0,0,0,0,0,0,0,0,0,0],"sum_hessian":[1.4122458E3,1.1097948E3,3.024511E2,5.4730066E2,5.6249414E2,2.3884335E2,6.360775E1,1.0728122E2,4.400194E2,1.2256936E2,4.399248E2,3.5515587E1,2.0332776E2,4.0110455E1,2.3497295E1,7.434472E1,3.2936497E1,1.432063E2,2.968131E2,1.096455E1,1.11604805E2,9.525247E1,3.4467233E2,7.4157324E0,2.8099855E1,9.779172E1,1.0553605E2,2.6631546E1,1.3478908E1,6.5435104E1,8.909613E0,2.4367771E1,8.568726E0,1.3182574E2,1.1380561E1,4.1748688E1,2.5506442E2,5.796236E0,5.1683135E0,1.049255E2,6.679311E0,6.3814594E1,3.143788E1,1.3834693E1,3.3083765E2,7.9971523E0,2.0102703E1,7.3531632E0,9.043855E1,9.61528E1,9.383243E0,1.9574018E1,7.057528E0,7.549223E0,5.929685E0],"tree_param":{"num_deleted":"0","num_feature":"59","num_nodes":"55","size_leaf_vector":"1"}},{"base_weights":[9.100853E-3,-1.2118282E-1,4.548047E-1,-3.128691E-1,4.120672E-4,3.5527992E-1,8.3953565E-1,4.1048646E-2,-3.3474523E-1,5.0032765E-2,-2.9649788E-1,4.25925E-1,-1.259402E-1,5.9053737E-1,5.7412136E-2,-4.2282832E-1,-1.3249446E-1,6.9337085E-2,-4.8247125E-2,-4.499138E-1,2.4009733E-1,6.4911926E-1,1.9932647E-1,-4.6470323E-1,2.0513543E-1,7.78529E-1,8.226328E-2,-2.742753E-2,-6.734176E-3,-1.0850814E-2,2.782621E-2,-1.8178608E-2,5.320031E-3,-3.0656135E-2,5.999758E-3,-7.5024287E-3,3.0985534E-2,2.3096431E-2,4.8972283E-2,-1.1499505E-2,2.2308774E-2,-4.1718334E-2,-9.929066E-4,-1.7278275E-2,3.361586E-2,1.0664709E-2,4.4776905E-2,2.581188E-2,-1.9205913E-2],"categories":[],"categories_nodes":[],"categories_segments":[],"categories_sizes":[],"default_left":[1,0,0,1,0,0,0,0,0,0,0,0,0,0,0,0,0,0,0,0,0,0,0,1,0,0,0,0,0,0,0,0,0,0,0,0,0,0,0,0,0,0,0,0,0,0,0,0,0],"id":18,"left_children":[1,3,5,7,9,11,13,-1,15,17,19,21,23,25,-1,27,29,31,-1,33,35,37,39,41,43,45,47,-1,-1,-1,-1,-1,-1,-1,-1,-1,-1,-1,-1,-1,-1,-1,-1,-1,-1,-1,-1,-1,-1],"loss_changes":[8.345647E1,2.5925928E1,1.1552383E1,1.1532978E1,1.0115525E1,9.117672E0,2.9320755E0,0E0,7.415428E0,1.1726708E1,8.417672E0,1.1265648E1,4.32832E0,3.8152437E0,0E0,1.0471188E1,8.137867E0,9.423488E0,0E0,7.42937E0,3.8061528E0,5.738434E0,1.288401E1,3.030795E0,5.922063E0,1.4283772E0,3.565704E0,0E0,0E0,0E0,0E0,0E0,0E0,0E0,0E0,0E0,0E0,0E0,0E0,0E0,0E0,0E0,0E0,0E0,0E0,0E0,0E0,0E0,0E0],"parents":[2147483647,0,0,1,1,2,2,3,3,4,4,5,5,6,6,8,8,9,9,10,10,11,11,12,12,13,13,15,15,16,16,17,17,19,19,20,20,21,21,22,22,23,23,24,24,25,25,26,26],"right_children":[2,4,6,8,10,12,14,-1,16,18,20,22,24,26,-1,28,30,32,-1,34,36,38,40,42,44,46,48,-1,-1,-1,-1,-1,-1,-1,-1,-1,-1,-1,-1,-1,-1,-1,-1,-1,-1,-1,-1,-1,-1],"split_conditions":[8.63E2,-4.05E2,5.245E3,5.4761904E-1,6.136364E-1,2.7415144E-1,5E0,4.1048646E-2,2.7E1,3.85E1,7.7E1,6.7699365E-2,6.2983423E-1,5E0,5.7412136E-2,6.333333E-1,8.587156E-1,-2.5E1,-4.8247125E-2,2.8458497E-1,7E0,9.426987E-2,5.625E-1,2.928615E-2,4E0,2.5531915E-1,4E0,-2.742753E-2,-6.734176E-3,-1.0850814E-2,2.782621E-2,-1.8178608E-2,5.320031E-3,-3.0656135E-2,5.999758E-3,-7.5024287E-3,3.0985534E-2,2.3096431E-2,4.8972283E-2,-1.1499505E-2,2.2308774E-2,-4.1718334E-2,-9.929066E-4,-1.7278275E-2,3.361586E-2,1.0664709E-2,4.4776905E-2,2.581188E-2,-1.9205913E-2],"split_indices":[20,20,20,53,44,58,3,0,48,7,11,51,38,26,0,22,57,48,0,58,50,36,22,51,6,43,48,0,0,0,0,0,0,0,0,0,0,0,0,0,0,0,0,0,0,0,0,0,0],"split_type":[0,0,0,0,0,0,0,0,0,0,0,0,0,0,0,0,0,0,0,0,0,0,0,0,0,0,0,0,0,0,0,0,0,0,0,0,0,0,0,0,0,0,0,0,0,0,0,0,0],"sum_hessian":[1.4313738E3,1.109299E3,3.2207483E2,4.2872437E2,6.805746E2,2.604661E2,6.160874E1,6.040867E0,4.2268347E2,5.852585E2,9.531611E1,2.2742404E2,3.3042053E1,3.8939537E1,2.2669207E1,2.921682E2,1.3051527E2,5.770778E2,8.180673E0,7.450056E1,2.0815554E1,1.1175454E2,1.156695E2,1.5732946E1,1.7309105E1,2.7261423E1,1.1678113E1,2.0152733E2,9.064088E1,1.1808492E2,1.2430351E1,4.3425964E1,5.3365186E2,5.7738182E1,1.6762375E1,1.1160056E1,9.6554985E0,7.592453E1,3.5830013E1,4.230248E1,7.336702E1,7.157886E0,8.57506E0,8.30287E0,9.006236E0,6.1279335E0,2.113349E1,5.883105E0,5.795008E0],"tree_param":{"num_deleted":"0","num_feature":"59","num_nodes":"49","size_leaf_vector":"1"}},{"base_weights":[1.4517692E-2,-1.7824885E-1,3.191326E-1,-5.269787E-1,-1.1861797E-1,2.4356958E-1,8.8495374E-1,1.2697051E-1,-5.927802E-1,-1.33560365E-2,-2.7133456E-1,2.9634923E-1,-3.1825703E-1,9.4505054E-1,1.1412232E-2,-1.9274024E-2,3.1763118E-2,-2.3135823E-1,-7.0523316E-1,-2.4864554E-1,1.18918374E-1,3.4462994E-1,-3.2218084E-1,4.346688E-1,5.6724004E-2,2.6606828E-2,-4.879963E-1,5.2716713E-2,6.1947453E-1,2.9387934E-2,-2.6571691E-2,-2.1197017E-2,-4.1699763E-2,6.300226E-3,-1.926631E-2,1.7057558E-3,1.8753324E-2,-1.6018847E-2,4.049094E-2,-1.7654149E-2,1.6897028E-2,2.592876E-2,-2.327929E-3,-1.3046068E-2,1.1596108E-2,-4.1260585E-2,9.801443E-4,-1.7727386E-3,4.175143E-2],"categories":[],"categories_nodes":[],"categories_segments":[],"categories_sizes":[],"default_left":[0,0,0,0,0,1,0,0,0,0,1,0,1,0,0,0,0,0,0,0,1,0,0,0,0,0,0,0,0,0,0,0,0,0,0,0,0,0,0,0,0,0,0,0,0,0,0,0,0],"id":19,"left_children":[1,3,5,7,9,11,13,15,17,19,21,23,25,27,-1,-1,-1,29,31,33,35,37,39,41,43,-1,45,-1,47,-1,-1,-1,-1,-1,-1,-1,-1,-1,-1,-1,-1,-1,-1,-1,-1,-1,-1,-1,-1],"loss_changes":[8.335688E1,1.7894743E1,2.2873974E1,5.652157E0,1.1988368E1,1.4796656E1,1.8657799E0,4.3811674E0,4.1887054E0,1.3939266E1,9.867144E0,1.4807182E1,7.0549464E0,8.213806E-2,0E0,0E0,0E0,8.748389E0,2.0659828E0,8.39632E0,6.1938677E0,8.407577E0,6.125828E0,1.154821E1,9.517791E0,0E0,6.5203066E0,0E0,3.1513224E0,0E0,0E0,0E0,0E0,0E0,0E0,0E0,0E0,0E0,0E0,0E0,0E0,0E0,0E0,0E0,0E0,0E0,0E0,0E0,0E0],"parents":[2147483647,0,0,1,1,2,2,3,3,4,4,5,5,6,6,7,7,8,8,9,9,10,10,11,11,12,12,13,13,17,17,18,18,19,19,20,20,21,21,22,22,23,23,24,24,26,26,28,28],"right_children":[2,4,6,8,10,12,14,16,18,20,22,24,26,28,-1,-1,-1,30,32,34,36,38,40,42,44,-1,46,-1,48,-1,-1,-1,-1,-1,-1,-1,-1,-1,-1,-1,-1,-1,-1,-1,-1,-1,-1,-1,-1],"split_conditions":[2.85E2,-1.952E3,5.245E3,9E0,5.3333336E-1,7.727825E-1,1E0,7.7E1,-1.2E1,4.375E-1,5.749441E-1,6.3704634E-1,2.2608696E-2,8.608815E-2,1.1412232E-2,-1.9274024E-2,3.1763118E-2,1.9143577E-1,5.769231E-1,5.5932206E-1,9.6038416E-2,9E0,5.652921E-1,-1.6E1,1.7E1,2.6606828E-2,1.6180049E-1,5.2716713E-2,1E0,2.9387934E-2,-2.6571691E-2,-2.1197017E-2,-4.1699763E-2,6.300226E-3,-1.926631E-2,1.7057558E-3,1.8753324E-2,-1.6018847E-2,4.049094E-2,-1.7654149E-2,1.6897028E-2,2.592876E-2,-2.327929E-3,-1.3046068E-2,1.1596108E-2,-4.1260585E-2,9.801443E-4,-1.7727386E-3,4.175143E-2],"split_indices":[20,20,20,6,47,54,16,18,33,31,53,53,37,51,0,0,0,58,25,56,51,35,40,19,35,0,51,0,1,0,0,0,0,0,0,0,0,0,0,0,0,0,0,0,0,0,0,0,0],"split_type":[0,0,0,0,0,0,0,0,0,0,0,0,0,0,0,0,0,0,0,0,0,0,0,0,0,0,0,0,0,0,0,0,0,0,0,0,0,0,0,0,0,0,0,0,0,0,0,0,0],"sum_hessian":[1.4136698E3,8.6654614E2,5.471236E2,1.2310406E2,7.434421E2,4.864515E2,6.0672115E1,1.0999535E1,1.1210452E2,4.4202966E2,3.014124E2,4.4597305E2,4.0478443E1,5.4378605E1,6.2935095E0,5.838304E0,5.16123E0,2.8779577E1,8.332494E1,1.5812244E2,2.8390723E2,2.166184E1,2.7975058E2,2.812084E2,1.6476465E2,5.669448E0,3.4808994E1,3.5685284E1,1.8693323E1,6.945185E0,2.183439E1,3.0208649E1,5.31163E1,4.2329365E1,1.1579307E2,2.158463E2,6.8060936E1,9.300409E0,1.2361431E1,2.685733E2,1.1177284E1,2.3925867E2,4.1949753E1,5.8049442E1,1.067152E2,1.9786802E1,1.5022191E1,5.2496347E0,1.3443687E1],"tree_param":{"num_deleted":"0","num_feature":"59","num_nodes":"49","size_leaf_vector":"1"}},{"base_weights":[-6.2419637E-3,-8.2280755E-2,4.3192247E-1,-3.8859302E-1,1.3465686E-2,6.268848E-2,5.9548986E-1,-4.4190297E-1,1.2896152E-1,-8.577708E-2,2.0096152E-1,-4.043979E-1,3.5105163E-1,-7.360801E-2,6.6544753E-1,-2.5025955E-1,-6.030258E-1,6.267569E-1,-3.279104E-1,3.7938833E-5,-3.6669344E-1,9.3751825E-2,4.856272E-1,-6.9541836E-1,9.992442E-3,4.692079E-1,-9.668879E-3,-2.2893341E-2,1.1641863E-2,8.254519E-1,2.3356482E-1,-3.1352088E-2,-1.4487259E-3,-4.087326E-2,-1.5734239E-2,3.5718926E-3,4.711235E-2,1.3280883E-2,-3.3357896E-2,-1.513165E-2,3.7067744E-3,-7.4768104E-3,-3.0402724E-2,6.4363173E-4,2.2849506E-2,3.628551E-2,6.215267E-3,-4.7079813E-2,-2.2790192E-3,2.9741157E-2,-7.6200864E-3,2.0246426E-2,4.68062E-2,-2.8182928E-2,2.2532804E-2],"categories":[],"categories_nodes":[],"categories_segments":[],"categories_sizes":[],"default_left":[1,0,0,1,0,0,0,0,0,1,1,0,0,0,1,1,0,0,0,0,0,0,0,0,0,0,0,0,0,0,0,0,0,0,0,0,0,0,0,0,0,0,0,0,0,0,0,0,0,0,0,0,0,0,0],"id":20,"left_children":[1,3,5,7,9,11,13,15,17,19,21,23,25,27,29,31,33,35,37,39,41,43,45,47,-1,49,-1,-1,-1,51,53,-1,-1,-1,-1,-1,-1,-1,-1,-1,-1,-1,-1,-1,-1,-1,-1,-1,-1,-1,-1,-1,-1,-1,-1],"loss_changes":[4.709634E1,3.5336426E1,1.2512909E1,8.086712E0,1.7178595E1,9.52117E0,6.9113884E0,7.5997925E0,7.237952E0,1.4559595E1,9.613116E0,5.1947193E0,3.0612793E0,2.2487042E0,8.4832535E0,1.0304085E1,7.8565636E0,2.4196334E0,3.984958E0,1.0510137E1,7.134617E0,6.9092703E0,7.248766E0,2.9120016E0,0E0,3.1220942E0,0E0,0E0,0E0,3.2608337E0,7.6212893E0,0E0,0E0,0E0,0E0,0E0,0E0,0E0,0E0,0E0,0E0,0E0,0E0,0E0,0E0,0E0,0E0,0E0,0E0,0E0,0E0,0E0,0E0,0E0,0E0],"parents":[2147483647,0,0,1,1,2,2,3,3,4,4,5,5,6,6,7,7,8,8,9,9,10,10,11,11,12,12,13,13,14,14,15,15,16,16,17,17,18,18,19,19,20,20,21,21,22,22,23,23,25,25,29,29,30,30],"right_children":[2,4,6,8,10,12,14,16,18,20,22,24,26,28,30,32,34,36,38,40,42,44,46,48,-1,50,-1,-1,-1,52,54,-1,-1,-1,-1,-1,-1,-1,-1,-1,-1,-1,-1,-1,-1,-1,-1,-1,-1,-1,-1,-1,-1,-1,-1],"split_conditions":[2.785E3,2.6E1,1.9E1,7.867495E-1,8.4E1,6.282051E-1,5.9369135E-1,5.263158E-1,5.2238804E-1,2.4909747E-1,5E0,7.105263E-1,7.2727275E-1,4E0,1.91E2,5.868263E-1,3.1657357E-2,1.4E1,-1.3E1,-8E0,3.2379925E-2,5.925926E-1,2E0,5E0,9.992442E-3,6.3E1,-9.668879E-3,-2.2893341E-2,1.1641863E-2,2.541335E-2,2.33E1,-3.1352088E-2,-1.4487259E-3,-4.087326E-2,-1.5734239E-2,3.5718926E-3,4.711235E-2,1.3280883E-2,-3.3357896E-2,-1.513165E-2,3.7067744E-3,-7.4768104E-3,-3.0402724E-2,6.4363173E-4,2.2849506E-2,3.628551E-2,6.215267E-3,-4.7079813E-2,-2.2790192E-3,2.9741157E-2,-7.6200864E-3,2.0246426E-2,4.68062E-2,-2.8182928E-2,2.2532804E-2],"split_indices":[5,11,11,39,11,41,38,47,55,58,6,22,46,33,15,41,52,11,33,48,52,30,26,33,0,48,0,0,0,37,7,0,0,0,0,0,0,0,0,0,0,0,0,0,0,0,0,0,0,0,0,0,0,0,0],"split_type":[0,0,0,0,0,0,0,0,0,0,0,0,0,0,0,0,0,0,0,0,0,0,0,0,0,0,0,0,0,0,0,0,0,0,0,0,0,0,0,0,0,0,0,0,0,0,0,0,0,0,0,0,0,0,0],"sum_hessian":[1.4073619E3,1.2013219E3,2.0604004E2,2.8389822E2,9.1742365E2,6.452723E1,1.415128E2,2.577841E2,2.6114143E1,6.009594E2,3.1646423E2,2.4169939E1,4.035729E1,1.3380539E1,1.2813226E2,1.21239075E2,1.36545E2,1.1963502E1,1.4150641E1,4.626328E2,1.3832663E2,2.3278256E2,8.3681656E1,1.6007614E1,8.162325E0,3.350111E1,6.8561783E0,5.2788715E0,8.101667E0,9.149956E1,3.663271E1,4.2823147E1,7.841593E1,7.515041E1,6.1394592E1,5.6673155E0,6.296186E0,5.383352E0,8.76729E0,8.9164444E1,3.7346835E2,7.53718E1,6.295482E1,1.9293065E2,3.985192E1,4.8457954E1,3.5223698E1,1.0632716E1,5.374899E0,2.7976818E1,5.524292E0,2.1975437E1,6.9524124E1,6.8153777E0,2.9817331E1],"tree_param":{"num_deleted":"0","num_feature":"59","num_nodes":"55","size_leaf_vector":"1"}},{"base_weights":[4.0554036E-3,-1.3036287E-1,3.8480777E-1,-3.4052584E-1,-2.2889605E-2,3.0062118E-1,7.887973E-1,-4.550192E-1,-1.3883321E-1,1.4160831E-1,-1.0450785E-1,4.0057158E-1,1.930846E-2,8.903299E-1,-5.714385E-4,-6.377265E-1,-1.9991714E-1,2.7014562E-1,-2.86727E-1,-8.324389E-2,3.3705693E-1,-2.0031907E-1,7.1470164E-2,-2.119065E-2,4.3104842E-1,-3.641673E-1,2.43359E-1,1.0064559E0,4.8727196E-1,-4.0830698E-2,-1.8453322E-2,1.9952115E-3,-2.7186839E-2,-8.006859E-3,2.9818235E-2,9.322575E-3,-2.123932E-2,1.9840382E-4,-4.0917065E-2,2.977567E-2,3.4424508E-4,-1.31014455E-2,4.9567753E-3,1.947513E-2,-3.1186203E-3,-7.077483E-3,2.386037E-2,-3.4570724E-2,1.0567184E-2,2.7777076E-2,-8.464469E-3,1.9739358E-2,5.557121E-2,3.7699454E-2,-5.9427745E-3],"categories":[],"categories_nodes":[],"categories_segments":[],"categories_sizes":[],"default_left":[1,0,0,0,0,0,0,0,0,0,0,0,0,0,0,0,0,0,0,0,0,0,0,0,0,0,0,0,0,0,0,0,0,0,0,0,0,0,0,0,0,0,0,0,0,0,0,0,0,0,0,0,0,0,0],"id":21,"left_children":[1,3,5,7,9,11,13,15,17,19,21,23,25,27,-1,29,31,33,35,37,39,41,43,-1,45,47,49,51,53,-1,-1,-1,-1,-1,-1,-1,-1,-1,-1,-1,-1,-1,-1,-1,-1,-1,-1,-1,-1,-1,-1,-1,-1,-1,-1],"loss_changes":[7.210814E1,2.3497828E1,1.1791019E1,7.942108E0,9.3383255E0,8.666687E0,5.0311203E0,1.0025589E1,8.206008E0,1.0228701E1,7.87299E0,6.2735786E0,7.4978743E0,1.0868874E0,0E0,5.2833443E0,8.109449E0,5.417633E0,6.6574E0,7.0456724E0,1.05766115E1,5.6489973E0,7.1354966E0,0E0,6.0503387E0,6.511058E0,7.358213E0,1.2271576E0,3.1853137E0,0E0,0E0,0E0,0E0,0E0,0E0,0E0,0E0,0E0,0E0,0E0,0E0,0E0,0E0,0E0,0E0,0E0,0E0,0E0,0E0,0E0,0E0,0E0,0E0,0E0,0E0],"parents":[2147483647,0,0,1,1,2,2,3,3,4,4,5,5,6,6,7,7,8,8,9,9,10,10,11,11,12,12,13,13,15,15,16,16,17,17,18,18,19,19,20,20,21,21,22,22,24,24,25,25,26,26,27,27,28,28],"right_children":[2,4,6,8,10,12,14,16,18,20,22,24,26,28,-1,30,32,34,36,38,40,42,44,-1,46,48,50,52,54,-1,-1,-1,-1,-1,-1,-1,-1,-1,-1,-1,-1,-1,-1,-1,-1,-1,-1,-1,-1,-1,-1,-1,-1,-1,-1],"split_conditions":[6.85E2,-5.85E2,5.245E3,5.185185E-1,3.846154E-1,5.652174E-1,1E0,6.111111E-1,5.625E-1,2.4E1,2.2E1,6.363636E-1,2.548E3,8.989658E-2,-5.714385E-4,3.55233E-2,6.4705884E-1,5.833333E-1,1E1,3.45E1,7.5E1,6.818182E-1,5.983038E-1,-2.119065E-2,2.9E1,3.362832E-2,2E0,8.2229966E-1,4.8E1,-4.0830698E-2,-1.8453322E-2,1.9952115E-3,-2.7186839E-2,-8.006859E-3,2.9818235E-2,9.322575E-3,-2.123932E-2,1.9840382E-4,-4.0917065E-2,2.977567E-2,3.4424508E-4,-1.31014455E-2,4.9567753E-3,1.947513E-2,-3.1186203E-3,-7.077483E-3,2.386037E-2,-3.4570724E-2,1.0567184E-2,2.7777076E-2,-8.464469E-3,1.9739358E-2,5.557121E-2,3.7699454E-2,-5.9427745E-3],"split_indices":[20,20,20,29,46,45,16,22,44,14,35,42,5,51,0,52,45,22,6,7,4,32,53,0,11,52,1,42,11,0,0,0,0,0,0,0,0,0,0,0,0,0,0,0,0,0,0,0,0,0,0,0,0,0,0],"split_type":[0,0,0,0,0,0,0,0,0,0,0,0,0,0,0,0,0,0,0,0,0,0,0,0,0,0,0,0,0,0,0,0,0,0,0,0,0,0,0,0,0,0,0,0,0,0,0,0,0,0,0,0,0,0,0],"sum_hessian":[1.4029697E3,1.0383651E3,3.6460464E2,3.4913315E2,6.89232E2,3.060582E2,5.854647E1,2.2030579E2,1.2882735E2,2.2783525E2,4.6139673E2,2.2488481E2,8.117337E1,5.165473E1,6.891738E0,1.2574557E2,9.456023E1,3.3555267E1,9.527208E1,1.06749016E2,1.21086235E2,2.9847635E2,1.6292038E2,6.6370697E0,2.1824774E2,2.9244144E1,5.1929226E1,3.6614494E1,1.5040238E1,7.181127E1,5.393429E1,5.7267067E1,3.729316E1,1.5128335E1,1.8426931E1,2.128145E1,7.399063E1,9.809484E1,8.654169E0,6.656705E1,5.4519184E1,2.477885E2,5.0687866E1,4.6558674E1,1.1636171E2,1.5818672E1,2.0242908E2,1.8258062E1,1.0986081E1,2.8972042E1,2.2957184E1,7.45514E0,2.9159353E1,9.936152E0,5.1040854E0],"tree_param":{"num_deleted":"0","num_feature":"59","num_nodes":"55","size_leaf_vector":"1"}},{"base_weights":[9.010825E-3,-1.13171205E-1,3.338768E-1,-3.1227756E-1,-9.404927E-3,2.51139E-1,7.8034925E-1,2.5982127E-2,-3.3564502E-1,5.210393E-1,-3.612122E-2,4.1368884E-1,9.983992E-2,4.966954E-2,4.6335152E-1,-2.2402543E-3,-3.9462286E-1,-1.19218044E-1,8.4947133E-1,3.077585E-2,-2.8233936E-1,-4.100591E-1,4.8461547E-1,2.4215837E-1,-1.9486639E-1,6.55274E-1,-3.5701573E-3,1.1303808E-2,-2.0315101E-2,-2.245121E-2,6.3271387E-3,1.660636E-2,-2.6954813E-2,5.7791885E-2,1.1401388E-2,9.16299E-3,-4.0421546E-3,-1.83015E-2,2.6256695E-2,1.015137E-2,-4.6115253E-2,3.235836E-2,4.5987316E-3,-3.0314259E-3,2.3019357E-2,9.483339E-3,-1.9926816E-2,2.9585545E-3,4.3338228E-2],"categories":[],"categories_nodes":[],"categories_segments":[],"categories_sizes":[],"default_left":[1,0,0,1,1,0,0,0,0,0,0,0,0,0,0,0,0,0,0,0,0,0,1,0,0,0,0,0,0,0,0,0,0,0,0,0,0,0,0,0,0,0,0,0,0,0,0,0,0],"id":22,"left_children":[1,3,5,7,9,11,13,-1,15,17,19,21,23,-1,25,27,29,31,33,35,37,39,41,43,45,47,-1,-1,-1,-1,-1,-1,-1,-1,-1,-1,-1,-1,-1,-1,-1,-1,-1,-1,-1,-1,-1,-1,-1],"loss_changes":[5.5709293E1,2.106669E1,1.358123E1,7.3154335E0,9.603665E0,7.943447E0,2.5728645E0,0E0,6.7158203E0,7.1376305E0,1.0636724E1,9.779467E0,7.4330783E0,0E0,3.13245E0,5.2916727E0,8.401054E0,3.1238291E0,3.3691568E0,8.71219E0,9.897432E0,4.985363E0,9.145779E0,7.9185195E0,4.790827E0,2.5879984E0,0E0,0E0,0E0,0E0,0E0,0E0,0E0,0E0,0E0,0E0,0E0,0E0,0E0,0E0,0E0,0E0,0E0,0E0,0E0,0E0,0E0,0E0,0E0],"parents":[2147483647,0,0,1,1,2,2,3,3,4,4,5,5,6,6,8,8,9,9,10,10,11,11,12,12,14,14,15,15,16,16,17,17,18,18,19,19,20,20,21,21,22,22,23,23,24,24,25,25],"right_children":[2,4,6,8,10,12,14,-1,16,18,20,22,24,-1,26,28,30,32,34,36,38,40,42,44,46,48,-1,-1,-1,-1,-1,-1,-1,-1,-1,-1,-1,-1,-1,-1,-1,-1,-1,-1,-1,-1,-1,-1,-1],"split_conditions":[6.41E2,-5.85E2,5.245E3,5.5589354E-1,1.6299138E-2,5.007429E-1,1.9E1,2.5982127E-2,1.8E1,7.456647E-1,2.5050506E-1,7.0454544E-1,2E0,4.966954E-2,6.4312094E-1,1.9E2,7.802901E-1,4.524887E-2,1.02E2,4.375E-1,1.16E2,4.4048734E-2,1.9E2,8.082192E-1,2.45E3,2.7149323E-1,-3.5701573E-3,1.1303808E-2,-2.0315101E-2,-2.245121E-2,6.3271387E-3,1.660636E-2,-2.6954813E-2,5.7791885E-2,1.1401388E-2,9.16299E-3,-4.0421546E-3,-1.83015E-2,2.6256695E-2,1.015137E-2,-4.6115253E-2,3.235836E-2,4.5987316E-3,-3.0314259E-3,2.3019357E-2,9.483339E-3,-1.9926816E-2,2.9585545E-3,4.3338228E-2],"split_indices":[20,20,20,53,52,55,50,0,19,42,58,42,1,0,53,8,39,51,11,47,4,37,15,42,5,43,0,0,0,0,0,0,0,0,0,0,0,0,0,0,0,0,0,0,0,0,0,0,0],"split_type":[0,0,0,0,0,0,0,0,0,0,0,0,0,0,0,0,0,0,0,0,0,0,0,0,0,0,0,0,0,0,0,0,0,0,0,0,0,0,0,0,0,0,0,0,0,0,0,0,0],"sum_hessian":[1.3976561E3,1.0170854E3,3.8057074E2,3.463952E2,6.706902E2,3.2502618E2,5.5544556E1,7.7231874E0,3.3867203E2,2.9498476E1,6.411917E2,1.5417924E2,1.7084694E2,2.9390877E1,2.615368E1,5.137282E1,2.872992E2,1.06493225E1,1.8849154E1,5.0626526E2,1.3492644E2,1.1085617E1,1.4309363E2,1.1557083E2,5.5276104E1,1.8748692E1,7.4049892E0,3.366933E1,1.770349E1,2.6052032E2,2.677887E1,5.4345083E0,5.214814E0,1.0897171E1,7.9519825E0,2.1315128E2,2.9311398E2,1.2374134E2,1.1185092E1,5.8704586E0,5.215158E0,9.98227E1,4.3270924E1,4.93146E1,6.6256226E1,1.9211205E1,3.60649E1,5.9152985E0,1.2833392E1],"tree_param":{"num_deleted":"0","num_feature":"59","num_nodes":"49","size_leaf_vector":"1"}},{"base_weights":[1.4376538E-2,-1.401702E-1,2.4700361E-1,-2.1370533E-1,2.4656987E-2,1.873519E-1,7.5324845E-1,-1.06377944E-1,-4.7540823E-1,1.12700574E-1,-3.0781636E-1,2.3390634E-1,-3.1560147E-1,8.5865885E-1,-1.4153741E-3,-2.0927742E-1,1.3081832E-1,-5.937256E-1,3.2114927E-2,-3.0802152E-1,2.1988402E-1,-6.007022E-1,1.6317834E-1,4.7679698E-1,1.3896301E-1,-4.7248897E-1,2.7775843E-2,4.890652E-2,3.1425348E-1,-1.5073617E-2,9.413071E-3,2.5706706E-3,3.2855656E-2,-2.319037E-2,-4.71132E-2,3.0189812E-2,-1.996064E-2,-3.337228E-2,9.657922E-3,4.9899045E-2,7.442493E-3,7.4466923E-3,-4.1940182E-2,2.7768318E-2,-1.2780825E-2,-5.581078E-3,2.750786E-2,-3.7198018E-3,1.4557372E-2,-3.5637584E-2,-1.0262084E-4,-2.3084157E-3,2.7514149E-2],"categories":[],"categories_nodes":[],"categories_segments":[],"categories_sizes":[],"default_left":[1,0,0,0,0,1,0,0,0,1,1,0,0,0,0,0,0,0,0,0,0,0,0,0,0,0,0,0,0,0,0,0,0,0,0,0,0,0,0,0,0,0,0,0,0,0,0,0,0,0,0,0,0],"id":23,"left_children":[1,3,5,7,9,11,13,15,17,19,21,23,25,27,-1,29,31,33,35,37,39,41,43,45,47,49,-1,-1,51,-1,-1,-1,-1,-1,-1,-1,-1,-1,-1,-1,-1,-1,-1,-1,-1,-1,-1,-1,-1,-1,-1,-1,-1],"loss_changes":[5.0854614E1,1.0319178E1,1.6625523E1,1.6367712E1,7.859379E0,1.2140612E1,4.8938675E0,1.0356363E1,1.0276661E1,9.748056E0,8.056942E0,1.0585447E1,6.855938E0,2.4378204E0,0E0,1.097279E1,5.2983065E0,4.945244E0,9.358502E0,8.353255E0,8.974772E0,6.682311E0,4.3572254E0,5.8040733E0,1.1119428E1,4.4317513E0,0E0,0E0,1.2430979E0,0E0,0E0,0E0,0E0,0E0,0E0,0E0,0E0,0E0,0E0,0E0,0E0,0E0,0E0,0E0,0E0,0E0,0E0,0E0,0E0,0E0,0E0,0E0,0E0],"parents":[2147483647,0,0,1,1,2,2,3,3,4,4,5,5,6,6,7,7,8,8,9,9,10,10,11,11,12,12,13,13,15,15,16,16,17,17,18,18,19,19,20,20,21,21,22,22,23,23,24,24,25,25,28,28],"right_children":[2,4,6,8,10,12,14,16,18,20,22,24,26,28,-1,30,32,34,36,38,40,42,44,46,48,50,-1,-1,52,-1,-1,-1,-1,-1,-1,-1,-1,-1,-1,-1,-1,-1,-1,-1,-1,-1,-1,-1,-1,-1,-1,-1,-1],"split_conditions":[2.6E2,2.1E1,5.245E3,2.3E1,3.4E1,7.727825E-1,1.2760882E-1,4E0,2E0,5.762712E-1,2.5E1,5E0,3.78E2,2.9E1,-1.4153741E-3,2.5925925E-1,9.8E1,1E0,6.052632E-1,1.88E2,5.849057E-1,3E0,2.3550725E-1,3.6697248E-1,7.972973E-1,1.7058502E-1,2.7775843E-2,4.890652E-2,8.235294E-1,-1.5073617E-2,9.413071E-3,2.5706706E-3,3.2855656E-2,-2.319037E-2,-4.71132E-2,3.0189812E-2,-1.996064E-2,-3.337228E-2,9.657922E-3,4.9899045E-2,7.442493E-3,7.4466923E-3,-4.1940182E-2,2.7768318E-2,-1.2780825E-2,-5.581078E-3,2.750786E-2,-3.7198018E-3,1.4557372E-2,-3.5637584E-2,-1.0262084E-4,-2.3084157E-3,2.7514149E-2],"split_indices":[20,35,20,50,35,54,51,2,1,56,11,50,18,50,0,43,11,1,44,15,56,13,43,55,42,51,0,0,30,0,0,0,0,0,0,0,0,0,0,0,0,0,0,0,0,0,0,0,0,0,0,0,0],"split_type":[0,0,0,0,0,0,0,0,0,0,0,0,0,0,0,0,0,0,0,0,0,0,0,0,0,0,0,0,0,0,0,0,0,0,0,0,0,0,0,0,0,0,0,0,0,0,0,0,0,0,0,0,0],"sum_hessian":[1.4086349E3,8.4707166E2,5.615632E2,5.851336E2,2.6193805E2,5.0604523E2,5.5517944E1,4.1794785E2,1.6718579E2,2.0866397E2,5.3274067E1,4.6464178E2,4.1403442E1,4.86592E1,6.858746E0,2.917397E2,1.2620816E2,1.351655E2,3.2020287E1,4.1224815E1,1.6743916E2,3.2338406E1,2.0935661E1,1.27189926E2,3.3745184E2,3.624803E1,5.155414E0,3.7942505E1,1.0716692E1,2.3740665E2,5.4333027E1,1.1252411E2,1.3684048E1,1.03556725E2,3.1608776E1,1.3253949E1,1.8766336E1,2.3428028E1,1.7796787E1,1.0732217E1,1.5670694E2,8.066236E0,2.4272171E1,1.0306053E1,1.0629608E1,1.3925944E1,1.13263985E2,1.4112762E2,1.9632422E2,2.2970974E1,1.3277056E1,5.195795E0,5.520897E0],"tree_param":{"num_deleted":"0","num_feature":"59","num_nodes":"53","size_leaf_vector":"1"}},{"base_weights":[2.1704198E-3,5.3823423E-1,-5.6274638E-2,2.908885E-1,8.120976E-1,-2.6090443E-1,4.909247E-2,4.4208732E-1,-2.3123299E-1,9.093065E-1,-1.1757781E-3,-1.9534604E-1,-5.463078E-1,-1.3744862E-1,1.4954847E-1,6.8170387E-1,-2.6650164E-2,-3.2659296E-2,6.382501E-3,4.2091557E-3,9.954512E-1,6.919999E-2,-2.81722E-1,-7.723887E-1,-1.068547E-1,-4.7524518E-1,-2.35115E-2,8.2504496E-2,3.7832385E-1,1.5008121E-2,4.2879447E-2,1.5202363E-2,-2.486594E-2,2.2338608E-2,5.4347318E-2,1.1565281E-2,-1.7777672E-2,1.20254755E-2,-1.652094E-2,-4.3937597E-2,2.1366703E-3,4.6465542E-2,-2.3930755E-2,-3.1446364E-2,1.1654879E-2,1.7451951E-2,-7.4432045E-3,1.0969273E-2,-1.2537531E-3,2.6161784E-2,-1.115016E-2],"categories":[],"categories_nodes":[],"categories_segments":[],"categories_sizes":[],"default_left":[0,0,0,0,0,0,0,0,0,0,0,1,0,0,0,0,0,0,0,0,0,0,1,1,0,0,0,0,0,0,0,0,0,0,0,0,0,0,0,0,0,0,0,0,0,0,0,0,0,0,0],"id":24,"left_children":[1,3,5,7,9,11,13,15,17,19,-1,21,23,25,27,29,31,-1,-1,-1,33,35,37,39,41,43,45,47,49,-1,-1,-1,-1,-1,-1,-1,-1,-1,-1,-1,-1,-1,-1,-1,-1,-1,-1,-1,-1,-1,-1],"loss_changes":[4.390161E1,8.622574E0,2.7283182E1,6.3897333E0,5.2382812E0,7.7248096E0,1.573941E1,6.8813915E0,3.1686852E0,3.8098106E0,0E0,8.154889E0,7.5661125E0,1.1297375E1,8.269035E0,1.9344711E0,4.1032906E0,0E0,0E0,0E0,1.1263924E0,6.4175887E0,7.0463047E0,4.573225E0,1.2966722E1,8.506189E0,1.0584262E1,6.2821436E0,1.1044859E1,0E0,0E0,0E0,0E0,0E0,0E0,0E0,0E0,0E0,0E0,0E0,0E0,0E0,0E0,0E0,0E0,0E0,0E0,0E0,0E0,0E0,0E0],"parents":[2147483647,0,0,1,1,2,2,3,3,4,4,5,5,6,6,7,7,8,8,9,9,11,11,12,12,13,13,14,14,15,15,16,16,20,20,21,21,22,22,23,23,24,24,25,25,26,26,27,27,28,28],"right_children":[2,4,6,8,10,12,14,16,18,20,-1,22,24,26,28,30,32,-1,-1,-1,34,36,38,40,42,44,46,48,50,-1,-1,-1,-1,-1,-1,-1,-1,-1,-1,-1,-1,-1,-1,-1,-1,-1,-1,-1,-1,-1,-1],"split_conditions":[8E0,7.25E-1,2.9E1,6.388889E-1,7.916667E-1,5E0,1.85E-1,1.91E2,6.321839E-1,2.08E1,-1.1757781E-3,1.9180633E-1,2.1E1,4.7082767E-1,8.122172E-1,4.2105263E-1,2.6E1,-3.2659296E-2,6.382501E-3,4.2091557E-3,7E0,5.862069E-1,6.4028776E-1,1E1,7.935323E-1,1E0,5.5932206E-1,7.75E2,2.5050506E-1,1.5008121E-2,4.2879447E-2,1.5202363E-2,-2.486594E-2,2.2338608E-2,5.4347318E-2,1.1565281E-2,-1.7777672E-2,1.20254755E-2,-1.652094E-2,-4.3937597E-2,2.1366703E-3,4.6465542E-2,-2.3930755E-2,-3.1446364E-2,1.1654879E-2,1.7451951E-2,-7.4432045E-3,1.0969273E-2,-1.2537531E-3,2.6161784E-2,-1.115016E-2],"split_indices":[4,22,13,44,25,3,43,15,56,14,0,58,35,40,42,45,7,0,0,0,13,45,39,6,57,28,56,12,58,0,0,0,0,0,0,0,0,0,0,0,0,0,0,0,0,0,0,0,0,0,0],"split_type":[0,0,0,0,0,0,0,0,0,0,0,0,0,0,0,0,0,0,0,0,0,0,0,0,0,0,0,0,0,0,0,0,0,0,0,0,0,0,0,0,0,0,0,0,0,0,0,0,0,0,0],"sum_hessian":[1.3953516E3,1.3475331E2,1.2605983E3,7.4055214E1,6.0698097E1,4.2696875E2,8.336296E2,5.778219E1,1.6273026E1,5.413578E1,6.5623198E0,3.5132196E2,7.56468E1,2.9140402E2,5.422255E2,3.7334126E1,2.0448063E1,6.348585E0,9.924439E0,5.6783423E0,4.8457436E1,8.662125E1,2.647007E2,4.8448936E1,2.7197859E1,7.1099E1,2.2030502E2,4.224933E2,1.1973222E2,1.4342082E1,2.2992043E1,1.2633585E1,7.814478E0,9.448091E0,3.9009346E1,6.368312E1,2.2938128E1,2.15695E1,2.4313121E2,4.2649525E1,5.7994146E0,5.993522E0,2.1204338E1,5.869983E1,1.2399174E1,5.4116447E1,1.6618858E2,1.8455424E2,2.3793906E2,9.679542E1,2.2936808E1],"tree_param":{"num_deleted":"0","num_feature":"59","num_nodes":"51","size_leaf_vector":"1"}},{"base_weights":[1.239885E-2,-7.198087E-2,4.6078292E-1,1.1134726E-1,-1.6944368E-1,-2.3463142E-1,5.199605E-1,-1.451568E-1,1.8729949E-1,-2.4822369E-1,8.692759E-2,-3.2475103E-2,7.868903E-2,5.973294E-1,-2.4515105E-2,-2.2907342E-1,2.8561572E-2,4.299423E-1,1.5926182E-2,-4.1932422E-1,-1.1430461E-1,4.7899413E-1,-2.900737E-2,-1.3572487E-2,2.0066978E-2,6.983013E-1,3.1420615E-1,4.2681053E-1,-5.1781154E-1,7.3966854E-3,-1.9898318E-2,-2.738673E-3,2.7618451E-2,4.5163006E-2,-1.682008E-3,-4.336767E-2,-1.5444714E-2,1.1599659E-3,-1.4151215E-2,-9.346341E-3,3.595273E-2,-1.0123736E-2,1.1630057E-2,-5.945505E-3,3.683373E-2,2.243337E-2,-3.1264175E-3,-1.0493603E-3,3.578766E-2,-1.5533388E-3,-4.051963E-2],"categories":[],"categories_nodes":[],"categories_segments":[],"categories_sizes":[],"default_left":[1,0,0,0,0,0,0,0,0,0,0,0,0,1,0,1,0,0,0,0,0,1,0,0,0,0,0,0,0,0,0,0,0,0,0,0,0,0,0,0,0,0,0,0,0,0,0,0,0,0,0],"id":25,"left_children":[1,3,5,7,9,11,13,15,17,19,21,-1,23,25,27,29,-1,31,33,35,37,39,41,-1,-1,43,45,47,49,-1,-1,-1,-1,-1,-1,-1,-1,-1,-1,-1,-1,-1,-1,-1,-1,-1,-1,-1,-1,-1,-1],"loss_changes":[5.2882366E1,2.1082125E1,9.475723E0,8.0742E0,1.5605846E1,2.6786141E0,8.676922E0,6.128697E0,1.3196037E1,1.3361156E1,8.364086E0,0E0,1.8795257E0,4.474823E0,6.981341E0,5.751436E0,0E0,7.891163E0,8.420982E0,1.194347E1,7.78552E0,7.110471E0,6.682326E0,0E0,0E0,4.336323E0,2.7515292E0,2.175396E0,2.048514E0,0E0,0E0,0E0,0E0,0E0,0E0,0E0,0E0,0E0,0E0,0E0,0E0,0E0,0E0,0E0,0E0,0E0,0E0,0E0,0E0,0E0,0E0],"parents":[2147483647,0,0,1,1,2,2,3,3,4,4,5,5,6,6,7,7,8,8,9,9,10,10,12,12,13,13,14,14,15,15,17,17,18,18,19,19,20,20,21,21,22,22,25,25,26,26,27,27,28,28],"right_children":[2,4,6,8,10,12,14,16,18,20,22,-1,24,26,28,30,-1,32,34,36,38,40,42,-1,-1,44,46,48,50,-1,-1,-1,-1,-1,-1,-1,-1,-1,-1,-1,-1,-1,-1,-1,-1,-1,-1,-1,-1,-1,-1],"split_conditions":[1.341E3,9E0,2E1,1.6666667E-1,8.2978725E-1,6.83313E-1,1E0,1.66E2,4.375E-1,2.39E1,5.8870965E-1,-3.2475103E-2,2.412E3,7.4155843E-1,2E0,5.792079E-1,2.8561572E-2,2.15E1,-4.7E1,2.5498891E-2,3E0,9.69163E-2,2E1,-1.3572487E-2,2.0066978E-2,6E0,5E0,6.944444E-1,4E0,7.3966854E-3,-1.9898318E-2,-2.738673E-3,2.7618451E-2,4.5163006E-2,-1.682008E-3,-4.336767E-2,-1.5444714E-2,1.1599659E-3,-1.4151215E-2,-9.346341E-3,3.595273E-2,-1.0123736E-2,1.1630057E-2,-5.945505E-3,3.683373E-2,2.243337E-2,-3.1264175E-3,-1.0493603E-3,3.578766E-2,-1.5533388E-3,-4.051963E-2],"split_indices":[20,50,14,31,42,54,16,11,32,14,56,0,20,54,33,38,0,14,33,52,26,36,48,0,0,35,26,22,26,0,0,0,0,0,0,0,0,0,0,0,0,0,0,0,0,0,0,0,0,0,0],"split_type":[0,0,0,0,0,0,0,0,0,0,0,0,0,0,0,0,0,0,0,0,0,0,0,0,0,0,0,0,0,0,0,0,0,0,0,0,0,0,0,0,0,0,0,0,0,0,0,0,0,0,0],"sum_hessian":[1.3920978E3,1.1737354E3,2.1836247E2,4.0725632E2,7.66479E2,1.642717E1,2.019353E2,9.241639E1,3.1483994E2,5.863849E2,1.8009416E2,5.6831565E0,1.0744014E1,1.7655588E2,2.5379425E1,8.455273E1,7.8636613E0,1.2844778E2,1.8639215E2,2.5464565E2,3.3173923E2,3.895664E1,1.4113751E2,5.380829E0,5.3631854E0,1.2689962E2,4.965626E1,1.3464684E1,1.1914742E1,2.6274473E1,5.8278255E1,2.6235025E1,1.0221275E2,7.127435E0,1.7926472E2,4.62876E1,2.0835803E2,1.8420363E2,1.4753561E2,1.049839E1,2.845825E1,8.527289E1,5.5864628E1,5.4091015E0,1.2149052E2,3.617289E1,1.3483369E1,6.3718348E0,7.092849E0,5.719009E0,6.195733E0],"tree_param":{"num_deleted":"0","num_feature":"59","num_nodes":"51","size_leaf_vector":"1"}},{"base_weights":[7.093009E-3,-7.383405E-2,4.404609E-1,-2.4669841E-1,2.3180848E-2,-5.8793783E-2,4.9948922E-1,-3.7618235E-1,-9.044865E-2,-1.9098063E-1,8.702991E-2,-3.457476E-2,4.62865E-1,5.584063E-1,-3.652017E-2,-5.3133094E-1,-8.225979E-2,1.4153033E-1,-3.005037E-1,-3.225819E-1,9.78301E-2,8.8438135E-1,6.0679894E-2,-5.7608E-3,3.9623123E-2,4.212332E-1,8.020696E-1,-5.06499E-1,2.415764E-2,1.8529708E-3,-3.1183405E-2,1.7686268E-2,-1.046739E-2,-2.4779101E-3,2.208062E-2,-2.0131929E-2,2.2086957E-2,-1.0005486E-3,-2.452226E-2,2.2531806E-2,-9.673316E-3,8.207156E-3,5.72913E-2,-3.249876E-3,9.835998E-3,3.6977172E-2,1.0290596E-2,2.141187E-3,4.4028904E-2,1.9113151E-3,-4.3550953E-2],"categories":[],"categories_nodes":[],"categories_segments":[],"categories_sizes":[],"default_left":[0,0,0,0,1,0,1,0,1,0,0,0,0,0,0,0,0,0,0,0,0,0,0,0,0,1,0,0,0,0,0,0,0,0,0,0,0,0,0,0,0,0,0,0,0,0,0,0,0,0,0],"id":26,"left_children":[1,3,5,7,9,11,13,15,17,19,21,-1,23,25,27,29,31,33,35,37,39,41,43,-1,-1,45,47,49,-1,-1,-1,-1,-1,-1,-1,-1,-1,-1,-1,-1,-1,-1,-1,-1,-1,-1,-1,-1,-1,-1,-1],"loss_changes":[4.8849613E1,1.970428E1,6.5470314E0,8.44087E0,1.0369188E1,9.494476E0,6.2607193E0,1.0355148E1,9.644188E0,6.7178917E0,1.209654E1,0E0,3.316613E0,4.904293E0,6.1701064E0,7.9396706E0,4.8208227E0,5.5043235E0,8.376259E0,6.086198E0,6.104098E0,2.9084492E0,9.748962E0,0E0,0E0,7.7444134E0,3.4904175E0,2.711381E0,0E0,0E0,0E0,0E0,0E0,0E0,0E0,0E0,0E0,0E0,0E0,0E0,0E0,0E0,0E0,0E0,0E0,0E0,0E0,0E0,0E0,0E0,0E0],"parents":[2147483647,0,0,1,1,2,2,3,3,4,4,5,5,6,6,7,7,8,8,9,9,10,10,12,12,13,13,14,14,15,15,16,16,17,17,18,18,19,19,20,20,21,21,22,22,25,25,26,26,27,27],"right_children":[2,4,6,8,10,12,14,16,18,20,22,-1,24,26,28,30,32,34,36,38,40,42,44,-1,-1,46,48,50,-1,-1,-1,-1,-1,-1,-1,-1,-1,-1,-1,-1,-1,-1,-1,-1,-1,-1,-1,-1,-1,-1,-1],"split_conditions":[1.341E3,-4.05E2,1.81E2,3.314917E-2,4.76828E-1,3.484163E-2,7.7686405E-1,5.263158E-1,2.1198156E-1,6.342815E-1,1.3422819E-2,-3.457476E-2,3.6842105E-1,6.5399843E-1,6.944444E-1,4.5E-1,2.241036E-2,4E0,7.8571427E-1,3.846154E-1,6.516008E-1,2.6269702E-2,1.88E2,-5.7608E-3,3.9623123E-2,-5.5E1,5.659026E-1,2.412E3,2.415764E-2,1.8529708E-3,-3.1183405E-2,1.7686268E-2,-1.046739E-2,-2.4779101E-3,2.208062E-2,-2.0131929E-2,2.2086957E-2,-1.0005486E-3,-2.452226E-2,2.2531806E-2,-9.673316E-3,8.207156E-3,5.72913E-2,-3.249876E-3,9.835998E-3,3.6977172E-2,1.0290596E-2,2.141187E-3,4.4028904E-2,1.9113151E-3,-4.3550953E-2],"split_indices":[20,20,8,52,40,52,54,30,58,38,52,0,44,38,22,25,52,2,32,45,38,37,8,0,0,19,53,20,0,0,0,0,0,0,0,0,0,0,0,0,0,0,0,0,0,0,0,0,0,0,0],"split_type":[0,0,0,0,0,0,0,0,0,0,0,0,0,0,0,0,0,0,0,0,0,0,0,0,0,0,0,0,0,0,0,0,0,0,0,0,0,0,0,0,0,0,0,0,0,0,0,0,0,0,0],"sum_hessian":[1.3870883E3,1.1709198E3,2.161685E2,4.1925272E2,7.5166705E2,2.2857174E1,1.9331134E2,2.2695377E2,1.9229895E2,1.7125914E2,5.8040796E2,9.887847E0,1.2969328E1,1.7405428E2,1.9257051E1,1.4695802E2,7.999574E1,9.184573E1,1.0045322E2,1.1740903E2,5.3850113E1,1.5442083E1,5.649659E2,5.4179993E0,7.551328E0,1.16599495E2,5.745479E1,1.0151945E1,9.105105E0,2.0788477E1,1.2616954E2,1.6847876E1,6.314787E1,5.7643578E1,3.420216E1,8.95091E1,1.0944115E1,4.3092724E1,7.431631E1,2.3611658E1,3.0238453E1,5.413167E0,1.0028916E1,2.9448212E2,2.7048373E2,4.4115158E1,7.248434E1,5.818751E0,5.1636036E1,5.1465416E0,5.005403E0],"tree_param":{"num_deleted":"0","num_feature":"59","num_nodes":"51","size_leaf_vector":"1"}},{"base_weights":[-1.6834078E-2,-9.660916E-2,3.6137733E-1,-2.0833479E-1,4.0960062E-2,2.8402346E-1,7.672932E-1,-7.29429E-2,-3.3235577E-1,-4.0259728E-1,9.2975825E-2,2.1802877E-1,4.5916907E-2,5.464883E-3,9.0257615E-1,-1.5690432E-1,3.3674216E-1,-5.8582425E-1,-1.1171634E-1,7.468826E-2,-7.0052034E-1,1.7033422E-1,-2.0090441E-1,-6.815447E-2,3.3333653E-1,1.2679326E-2,5.0037332E-2,-1.2351149E-2,1.0690507E-2,4.260001E-2,1.996881E-3,5.0422666E-4,-3.2537825E-2,-1.0609362E-2,1.5292145E-2,-2.8141493E-2,1.9195562E-2,-1.0282535E-2,-4.6638586E-2,2.3382837E-2,3.6140885E-3,1.7995788E-2,-1.4562099E-2,-1.2053916E-2,3.5277944E-2,-2.4682473E-2,2.0259188E-2],"categories":[],"categories_nodes":[],"categories_segments":[],"categories_sizes":[],"default_left":[1,0,0,0,0,0,0,0,0,0,1,0,0,0,0,1,0,0,0,0,0,0,0,0,0,0,0,0,0,0,0,0,0,0,0,0,0,0,0,0,0,0,0,0,0,0,0],"id":27,"left_children":[1,3,5,7,9,11,13,15,17,19,21,23,-1,-1,25,27,29,31,33,35,37,39,41,43,45,-1,-1,-1,-1,-1,-1,-1,-1,-1,-1,-1,-1,-1,-1,-1,-1,-1,-1,-1,-1,-1,-1],"loss_changes":[4.260365E1,1.7940521E1,7.06995E0,1.0735868E1,1.2222303E1,8.247791E0,3.051939E0,1.0876308E1,1.8544888E1,8.07074E0,1.0838273E1,6.515855E0,0E0,0E0,1.1998997E0,8.865826E0,8.148406E0,6.0267677E0,7.866362E0,5.3991475E0,3.3960571E0,1.0844062E1,5.369549E0,8.351454E0,8.9055195E0,0E0,0E0,0E0,0E0,0E0,0E0,0E0,0E0,0E0,0E0,0E0,0E0,0E0,0E0,0E0,0E0,0E0,0E0,0E0,0E0,0E0,0E0],"parents":[2147483647,0,0,1,1,2,2,3,3,4,4,5,5,6,6,7,7,8,8,9,9,10,10,11,11,14,14,15,15,16,16,17,17,18,18,19,19,20,20,21,21,22,22,23,23,24,24],"right_children":[2,4,6,8,10,12,14,16,18,20,22,24,-1,-1,26,28,30,32,34,36,38,40,42,44,46,-1,-1,-1,-1,-1,-1,-1,-1,-1,-1,-1,-1,-1,-1,-1,-1,-1,-1,-1,-1,-1,-1],"split_conditions":[1.187E3,1.8E1,2.92E1,0E0,4.7046843E-1,7.847E3,3.5947714E-2,8.518519E-1,5.1E1,4.6153846E-1,2.5050506E-1,5.5E-1,4.5916907E-2,5.464883E-3,1.513E3,2.6E2,-4.2E1,3.888889E-1,8.095238E-1,4.783715E-1,2.35E1,5.4502368E-2,2.537594E-2,8.5E1,1.96E1,1.2679326E-2,5.0037332E-2,-1.2351149E-2,1.0690507E-2,4.260001E-2,1.996881E-3,5.0422666E-4,-3.2537825E-2,-1.0609362E-2,1.5292145E-2,-2.8141493E-2,1.9195562E-2,-1.0282535E-2,-4.6638586E-2,2.3382837E-2,3.6140885E-3,1.7995788E-2,-1.4562099E-2,-1.2053916E-2,3.5277944E-2,-2.4682473E-2,2.0259188E-2],"split_indices":[20,35,14,33,40,20,51,42,11,47,58,22,0,0,20,20,33,25,31,55,14,51,51,48,14,0,0,0,0,0,0,0,0,0,0,0,0,0,0,0,0,0,0,0,0,0,0],"split_type":[0,0,0,0,0,0,0,0,0,0,0,0,0,0,0,0,0,0,0,0,0,0,0,0,0,0,0,0,0,0,0,0,0,0,0,0,0,0,0,0,0,0,0,0,0,0,0],"sum_hessian":[1.405562E3,1.1625767E3,2.4298535E2,6.40697E2,5.218796E2,2.083752E2,3.4610153E1,3.085844E2,3.321126E2,5.2654636E1,4.6922498E2,1.9238994E2,1.5985263E1,6.827242E0,2.7782911E1,2.576353E2,5.0949104E1,1.5224715E2,1.7986546E2,2.1099785E1,3.1554852E1,3.7244666E2,9.677832E1,5.560651E1,1.3678343E2,5.062815E0,2.2720097E1,2.0805843E2,4.957689E1,1.6570568E1,3.4378536E1,1.520833E1,1.3703882E2,1.4617026E2,3.36952E1,6.0879564E0,1.5011829E1,1.1885729E1,1.9669123E1,8.95618E1,2.8288486E2,1.21844225E1,8.4593895E1,4.7136753E1,8.469757E0,9.525796E0,1.2725763E2],"tree_param":{"num_deleted":"0","num_feature":"59","num_nodes":"47","size_leaf_vector":"1"}},{"base_weights":[2.2632264E-2,-5.6144394E-2,4.2155904E-1,-2.0653735E-1,4.6921045E-2,-1.8819401E-2,4.8915246E-1,-2.2731237E-1,3.8079698E-2,-4.9642857E-2,2.3947158E-1,-2.5282645E-1,3.788617E-2,6.1159796E-1,2.1801403E-1,-1.06722504E-1,-3.966487E-1,1.829863E-1,-1.620286E-1,5.4931913E-2,4.907744E-1,1.7155878E-2,-5.3296685E-1,3.7694559E-1,8.931152E-1,